{"learner":{"attributes":{"niter":"99"},"feature_names":[],"feature_types":[],"gradient_booster":{"model":{"gbtree_model_param":{"num_parallel_tree":"1","num_trees":"100","size_leaf_vector":"0"},"tree_info":[0,0,0,0,0,0,0,0,0,0,0,0,0,0,0,0,0,0,0,0,0,0,0,0,0,0,0,0,0,0,0,0,0,0,0,0,0,0,0,0,0,0,0,0,0,0,0,0,0,0,0,0,0,0,0,0,0,0,0,0,0,0,0,0,0,0,0,0,0,0,0,0,0,0,0,0,0,0,0,0,0,0,0,0,0,0,0,0,0,0,0,0,0,0,0,0,0,0,0,0],"trees":[{"base_weights":[-1.4405782E0,-1.5593028E0,-5.022288E-1,-1.6389697E0,-7.253219E-1,-9.04698E-1,-0E0,-1.6592702E0,-0E0,-8.16E-1,5.5737704E-1,-1.0336392E0,-0E0,-1.420765E-1,1.2666667E0,-1.7247524E0,-1.2826239E0,-4.0963855E-1,7.2727275E-1,-8.86747E-1,3.6734694E-1,1.030303E0,-0E0,-1.1045752E0,-0E0,5.882353E-1,-5.833333E-1,-8.196721E-3,-1.0769231E0,1.4285715E0,-0E0,-1.7364126E0,-8.3760685E-1,-1.4224067E0,-5.1724136E-1,-6.4788735E-1,5E-1,1.0769231E0,-6.666667E-1,-9.2839503E-1,5E-1,7.4285716E-1,-2.2222222E-1,1.3103448E0,-0E0,-4.347826E-1,7.692308E-1,-1.1500844E0,8.695652E-2,4.2424244E-1,-8.235294E-1,8.695652E-1,-6.666667E-1,-1.027027E0,4E-1,-1.2556054E-1,1.0434783E0,-1.2542373E0,-0E0,1.5918367E0,-0E0,-1.7435184E0,-6.875E-1,-1.0736842E0,-0E0,-1.4390651E0,5.4545456E-1,-8.263473E-1,2.0289855E-1,-8.852459E-1,2.857143E-1,9.0909094E-1,-0E0,1.3939394E0,-0E0,-9.908497E-1,4.0816326E-2,9.4736844E-1,-2.2222222E-1,1.0666667E0,-2.2222222E-1,-8.5714287E-1,5E-1,1.4782609E0,-0E0,-0E0,-1E0,-1.2100538E0,-1E-1,5.882353E-1,-4E-1,-0E0,1E0,-1.0769231E0,-0E0,1.1794872E0,-1.8181819E-1,-1.25E0,-0E0,-0E0,6.666667E-1,-1.0833334E0,-0E0,1.3513514E0,-0E0,-1.4615384E0,-0E0,-1.7454132E0,5E-1,-1E0,2.5E-1,-1.2643678E0,3.3333334E-1,4.7619048E-1,-6.666667E-1,-1.4716982E0,-1.1111111E-1,-1.137931E0,-3.6363635E-2,6.3414633E-1,-2.5E-1,-1.2820513E0,-0E0,8E-1,-0E0,1.5862069E0,-0E0,-1.0441989E0,-0E0,4.6153846E-1,-8.5714287E-1,-0E0,1.2E0,1.4545455E0,-0E0,-5E-1,5.4545456E-1,-1.2546126E0,1.0526316E-1,6.451613E-2,-7.692308E-1,-0E0,1E0,4E-1,-4E-1,1.3142858E0,-0E0,-1.5384616E0,-0E0,-1.2380953E0,-0E0,-8.421053E-2,1.0769231E0,1.5151515E0,-0E0,-6.666667E-1,5E-1,-1.6444445E0,-0E0,-1.7564814E0,-1.1168832E0,-1.1666666E0,-0E0,-0E0,6.666667E-1,-1.373494E0,-0E0,-0E0,5E-1,8.5714287E-1,-0E0,-1.4832041E0,2.2222222E-1,-4.516129E-1,6.666667E-1,-1.25E0,5E-1,4.2424244E-1,-7.692308E-1,9.3333334E-1,-0E0,-8.333333E-1,6.666667E-1,-1.4285715E0,-0E0,2.2222222E-1,-6.666667E-1,-1.0743338E0,4E-1,-4E-1,8.5714287E-1,7.4285716E-1,-5E-1,-5E-1,5E-1,-1.3462366E0,-6.1728394E-1,5.714286E-1,-2.2222222E-1,3.7037036E-1,-5E-1,-0E0,-9.0909094E-1,1.483871E0,-0E0,-1.3684211E0,-0E0,-2.3411371E-1,4E-1,-0E0,1.4285715E0,-1.7629938E0,-7.5409836E-1,-1.1733333E0,-0E0,-1.4285715E0,-1.1764706E-1,-1.4871795E0,-0E0,-1.4939342E0,-0E0,-8.333333E-1,1.8181819E-1,-1.3904762E0,1.8181819E-1,8.5714287E-1,-6.666667E-1,-1.0909091E0,-0E0,1.2380953E0,-0E0,-6.666667E-1,4E-1,-1.1578947E0,-0E0,5.714286E-1,-0E0,-1.1754684E0,-5.538462E-1,9.0909094E-1,-0E0,-7.586207E-1,4E-1,1.0666667E0,-2.2222222E-1,-1.3914989E0,-0E0,-0E0,-9.3877554E-1,8E-1,-0E0,7.826087E-1,-5E-1,-1.5294118E0,-0E0,-3.1428573E-1,6.086956E-1,6.666667E-1,-4E-1,-1.7661154E0,-9.52381E-2,-9.4736844E-1,5E-1,-1.2394366E0,-0E0,-0E0,-6.666667E-1,-1.5675676E0,-0E0,-1.5026087E0,-0E0,-1.1111112E0,-0E0,-1.4747474E0,-0E0,1.1304348E0,-0E0,-1.3333334E0,-0E0,-2.2222222E-1,5E-1,-1.221239E0,-0E0,-7.9611653E-1,1.9354838E-1,-1.0909091E0,-0E0,1.2307693E0,-0E0,-1.4220183E0,-0E0,-4.6153846E-1,1.5384616E-1,-6.666667E-1,5.263158E-1,-1.2E0,5E-1,1.0588236E0,-0E0,-4.031008E-1,4.6153846E-1,1.1111112E0,-2.2222222E-1,8.3076924E-1,-5E-1,-1E0,5E-1,-1.767557E0,-0E0,5.4545456E-1,-8.5714287E-1,-1.137255E0,-0E0,-1.29927E0,-0E0,5E-1,-0E0,-1.5153644E0,-0E0,-1.5698925E0,-0E0,1.3333334E0,-0E0,-1.2428571E0,2.2222222E-1,4E-1,-8E-1,-9.0909094E-1,5E-1,7.2E-1,-8E-1,-1.3333334E0,-0E0,-0E0,1.4545455E0,-1.4431554E0,-0E0,1.8181819E-1,-5E-1,-6.666667E-1,-0E0,-0E0,5E-1,-9.3333334E-1,-0E0,9.3333334E-1,-0E0,-1.5E0,2.2222222E-1,-2.78481E-1,-1.36E0,8.5714287E-1,-2.2222222E-1,1E0,-2.2222222E-1,-1.7690002E0,-0E0,-1.2888889E0,-0E0,-1.531915E0,-6.3829786E-1,-1.5238096E0,-0E0,4E-1,-6.666667E-1,-1.6321839E0,-0E0,-1.2648649E0,2.2222222E-1,7.5E-1,-0E0,-1.0804597E0,-0E0,1.1111112E0,-0E0,-1.4807693E0,-1.0526316E-1,-5E-1,1.2345679E-1,-0E0,1.0588236E0,1.1272727E0,-0E0,-1.770847E0,-0E0,-1.5555556E0,-0E0,-1.6E0,-0E0,-8.8372093E-1,5E-1,-1.5323294E0,-0E0,-1.7402598E0,-2.857143E-1,-1.2859745E0,-0E0,1E0,-0E0,-1.2876712E0,-0E0,-0E0,5E-1,-1.502439E0,-0E0,-0E0,-5.4545456E-1,-6.567164E-1,1.3333334E-1,3.4285715E-1,-6.666667E-1,1.2653061E0,-0E0,-1.7764629E0,-9.032258E-1,2.2222222E-1,-5E-1,-1.6705883E0,-0E0,-1.2258065E0,-0E0,-1.5405165E0,-0E0,-0E0,-6.666667E-1,-1.3027523E0,-0E0,-1.4545455E0,-0E0,2.857143E-1,-5E-1,-5E-1,-0E0,-1.5431472E0,-2E-1,5E-1,-0E0,-8.108108E-1,-0E0,7.5E-1,-2.2222222E-1,6.666667E-1,-2.6086956E-1,-9.0909094E-1,-0E0,1.5121951E0,-0E0,-1.7778655E0,-0E0,-1.3913044E0,2E-1,-1.3846154E0,-0E0,5E-1,-3.3333334E-1,-1.5487914E0,-0E0,-1.3197782E0,-0E0,-1.6E0,-0E0,8E-1,-0E0,-1.5729166E0,-0E0,1.5384616E-1,-9.0909094E-1,-9.126214E-1,-0E0,8.5714287E-1,-5.882353E-1,-0E0,1E0,2.2222222E-1,-7.692308E-1,1E0,-1.3333334E-1,-9.3333334E-1,3.3333334E-1],"categories":[],"categories_nodes":[],"categories_segments":[],"categories_sizes":[],"default_left":[1,1,1,1,1,1,1,1,1,1,1,1,1,1,1,1,1,1,1,1,1,1,1,1,1,1,1,1,1,1,0,1,1,1,1,1,1,1,0,1,1,1,1,1,0,1,0,1,1,1,1,1,0,1,1,1,1,1,0,0,0,1,1,1,1,1,0,1,1,1,1,0,0,1,0,1,1,1,0,1,0,0,0,0,0,1,0,1,1,1,0,1,0,0,0,1,0,1,0,0,0,1,1,1,1,1,0,1,0,1,1,1,1,1,0,1,1,1,1,1,1,1,1,0,0,0,0,1,1,1,0,0,0,0,1,0,0,1,1,1,0,0,0,0,1,1,0,0,0,1,0,1,1,0,0,0,0,0,0,1,1,1,0,0,0,1,0,0,0,0,0,1,0,1,0,1,0,1,1,1,1,1,0,0,0,1,0,1,1,1,0,1,0,0,0,1,1,1,0,1,0,0,0,0,0,1,0,1,1,0,0,1,1,1,0,0,1,1,0,1,0,1,0,1,0,1,0,1,0,0,1,0,0,0,0,0,0,1,1,0,0,1,0,1,0,1,1,1,1,0,0,1,0,0,0,1,1,1,1,1,1,1,0,1,0,1,0,0,0,1,0,0,0,1,0,1,0,0,0,0,0,1,1,1,1,1,0,1,0,1,1,1,1,1,1,1,0,0,0,1,1,0,0,1,0,0,0,1,0,0,0,1,0,1,0,0,0,1,1,1,0,0,0,1,0,1,0,1,0,1,0,0,0,0,0,1,0,0,0,0,0,0,0,0,0,0,0,0,0,1,0,1,0,1,0,1,0,1,0,1,1,1,0,0,0,1,0,1,0,1,0,1,1,0,0,1,1,1,1,0,0,1,0,1,0,0,1,1,0,1,0,1,0,0,1,1,0,0,0,1,1,1,0,1,0,1,0,1,1,1,1,1,0,1,1,0,0,0,0,1,1,1,0,0,0,1,0,1,0,1,0,0,0,1,1,0,0,1,1,1,1,1,1,0,0,0,0,0,0,0,0,0,0,0,0,0,0,0,0,0,0,0,0,0,0,0,0,0,0,0,0,0,0,0,0,0,0,0,0],"id":0,"left_children":[1,3,5,7,9,11,13,15,17,19,21,23,25,27,29,31,33,35,37,39,41,43,45,47,49,51,53,55,57,59,-1,61,63,65,67,69,71,73,-1,75,77,79,81,83,-1,85,-1,87,89,91,93,95,-1,97,99,101,103,105,-1,-1,-1,107,109,111,113,115,-1,117,119,121,123,-1,-1,125,-1,127,129,131,-1,133,-1,-1,-1,-1,-1,135,-1,137,139,141,-1,143,-1,-1,-1,145,-1,147,-1,-1,-1,149,151,153,155,157,-1,159,-1,161,163,165,167,169,-1,171,173,175,177,179,181,183,185,-1,-1,-1,-1,187,189,191,-1,-1,-1,-1,193,-1,-1,195,197,199,-1,-1,-1,-1,201,203,-1,-1,-1,205,-1,207,209,-1,-1,-1,-1,-1,-1,211,213,215,-1,-1,-1,217,-1,-1,-1,-1,-1,219,-1,221,-1,223,-1,225,227,229,231,233,-1,-1,-1,235,-1,237,239,241,-1,243,-1,-1,-1,245,247,249,-1,251,-1,-1,-1,-1,-1,253,-1,255,257,-1,-1,259,261,263,-1,-1,265,267,-1,269,-1,271,-1,273,-1,275,-1,277,-1,-1,279,-1,-1,-1,-1,-1,-1,281,283,-1,-1,285,-1,287,-1,289,291,293,295,-1,-1,297,-1,-1,-1,299,301,303,305,307,309,311,-1,313,-1,315,-1,-1,-1,317,-1,-1,-1,319,-1,321,-1,-1,-1,-1,-1,323,325,327,329,331,-1,333,-1,335,337,339,341,343,345,347,-1,-1,-1,349,351,-1,-1,353,-1,-1,-1,355,-1,-1,-1,357,-1,359,-1,-1,-1,361,363,365,-1,-1,-1,367,-1,369,-1,371,-1,373,-1,-1,-1,-1,-1,375,-1,-1,-1,-1,-1,-1,-1,-1,-1,-1,-1,-1,-1,377,-1,379,-1,381,-1,383,-1,385,-1,387,389,391,-1,-1,-1,393,-1,395,-1,397,-1,399,401,-1,-1,403,405,407,409,-1,-1,411,-1,413,-1,-1,415,417,-1,419,-1,421,-1,-1,423,425,-1,-1,-1,427,429,431,-1,433,-1,435,-1,437,439,441,443,445,-1,447,449,-1,-1,-1,-1,451,453,455,-1,-1,-1,457,-1,459,-1,461,-1,-1,-1,463,465,-1,-1,467,469,471,473,475,477,-1,-1,-1,-1,-1,-1,-1,-1,-1,-1,-1,-1,-1,-1,-1,-1,-1,-1,-1,-1,-1,-1,-1,-1,-1,-1,-1,-1,-1,-1,-1,-1,-1,-1,-1,-1],"loss_changes":[3.285293E2,1.7178467E2,6.756493E1,7.925586E1,2.7814308E1,2.2243408E1,2.683716E1,5.341211E1,9.30011E0,1.9158508E1,4.019871E0,1.198819E1,8.495098E0,1.6083857E1,4.5047607E0,1.6867188E1,3.565277E1,4.9687767E0,6.4895105E0,1.2876816E1,3.3977323E0,3.6906996E0,3.0100334E0,9.4596405E0,4.3672013E0,5.2838874E0,6.2734237E0,1.427139E1,4.357237E0,2.469389E0,0E0,1.1215332E1,6.85758E0,1.1554016E1,1.3701884E1,4.78583E0,1.2727273E0,4.7226114E0,0E0,1.3248138E1,2.874269E0,3.8158731E0,2.8492062E0,1.1694145E-1,0E0,1.9130435E0,0E0,7.904709E0,1.8271099E0,2.5151515E0,8.86878E-1,4.959359E0,0E0,2.7432432E0,3.9999998E-1,1.2325485E1,4.3701525E0,4.56584E0,0E0,0E0,0E0,1.0520996E1,5.6875E0,7.7244987E0,2.1904762E0,1.1232544E1,0E0,9.060923E0,3.911806E0,4.0748205E0,1.3142858E0,0E0,0E0,2.2110748E0,0E0,9.587585E0,4.6279435E0,1.1368423E0,0E0,3.1030302E0,0E0,0E0,0E0,0E0,0E0,1.3181818E0,0E0,9.442688E0,1.8553349E0,1.5294118E0,0E0,1E0,0E0,0E0,0E0,1.5501833E0,0E0,2.884615E0,0E0,0E0,0E0,2.0119047E0,8.212146E0,2.0475025E0,1.5E0,2.6529922E0,0E0,8.90918E0,0E0,3.333334E0,7.5E-1,4.374462E0,1.6666666E-1,1.3809524E0,0E0,7.2719727E0,2.469534E0,6.6982765E0,5.3128204E0,2.4113822E0,5E0,1.8315029E0,1.5555556E0,0E0,0E0,0E0,0E0,8.9813385E0,3.9714284E0,3.2516482E0,0E0,0E0,0E0,0E0,1E0,0E0,0E0,5.117935E0,1.2013367E0,1.3936679E0,0E0,0E0,0E0,0E0,1.6727272E0,1.9502306E0,0E0,0E0,0E0,1.6942368E0,0E0,6.823306E0,3.1758242E0,0E0,0E0,0E0,0E0,0E0,0E0,8.806641E0,3.6006927E0,1.5826321E0,0E0,0E0,0E0,3.9836273E0,0E0,0E0,0E0,0E0,0E0,5.366211E0,0E0,2.6769304E0,0E0,7.0932884E0,0E0,4.6580086E0,2.6993008E0,1.5142856E0,1.4E0,2.2017546E0,0E0,0E0,0E0,9.20635E-1,0E0,7.0026245E0,1.6727272E0,3.1724138E0,0E0,3.8158731E0,0E0,0E0,0E0,5.6920624E0,3.0798693E0,4.5714283E-1,0E0,3.095813E0,0E0,0E0,0E0,0E0,0E0,2.0928783E0,0E0,4.9477305E0,5.066666E0,0E0,0E0,7.9873047E0,4.617342E0,2.9085426E0,0E0,0E0,9.411765E-1,2.3312569E0,0E0,5.241333E0,0E0,1.3888888E0,0E0,3.075901E0,0E0,2.204969E0,0E0,1.4545455E0,0E0,0E0,6.111111E-1,0E0,0E0,0E0,0E0,0E0,0E0,7.895401E0,6.6414814E0,0E0,0E0,2.3730407E0,0E0,1.3128204E0,0E0,4.0347595E0,7.692308E-1,3.6491227E0,5.9040823E0,0E0,0E0,1.2429664E0,0E0,0E0,0E0,4.9509506E0,3.5362318E0,4.048718E0,3.7E0,6.6552734E0,3.3419912E0,3.7007227E0,0E0,3.2823105E0,0E0,5E-1,0E0,0E0,0E0,4.7527466E0,0E0,0E0,0E0,3.4727936E0,0E0,6.52174E-1,0E0,0E0,0E0,0E0,0E0,5.704544E0,2.4E0,4.634157E0,4.5496774E0,1.4545455E0,0E0,1.7902098E0,0E0,3.9978333E0,5.909091E-1,3.076923E-1,4.2307693E-1,9.333334E-1,1.9508772E0,6.41111E0,0E0,0E0,0E0,5.6743174E0,2.5836387E0,0E0,0E0,3.8957262E0,0E0,0E0,0E0,6.663574E0,0E0,0E0,0E0,2.1986923E0,0E0,2.1186523E0,0E0,0E0,0E0,4.406006E0,1.4E0,6.414528E-1,0E0,0E0,0E0,5.8377533E0,0E0,1.45E0,0E0,4.9362583E0,0E0,2.3155553E0,0E0,0E0,0E0,0E0,0E0,3.68042E0,0E0,0E0,0E0,0E0,0E0,0E0,0E0,0E0,0E0,0E0,0E0,0E0,0E0,5.7137055E0,0E0,9.0756273E-1,0E0,2.4727268E0,0E0,6.2651367E0,0E0,3.08889E0,0E0,2.4510612E0,4.1081147E0,4.4467773E0,0E0,0E0,0E0,6.4188766E-1,0E0,4.9907227E0,0E0,7.5E-1,0E0,4.8694706E0,5E-1,0E0,0E0,3.337143E0,7.6555026E-1,4.5810947E0,3.4151678E0,0E0,0E0,2.1395187E0,0E0,5.0498047E0,0E0,0E0,6.111111E-1,1.705883E0,0E0,3.249813E0,0E0,3.5408936E0,0E0,0E0,7.1428573E-1,4.264023E0,0E0,0E0,0E0,4.648817E0,7.8571427E-1,5E-1,0E0,3.3827667E0,0E0,5E-1,0E0,3.7954826E0,2.338889E0,4.000828E0,6.060606E-1,3.8267784E0,0E0,4.737793E0,9.815709E0,0E0,0E0,0E0,0E0,8.163767E-1,8.333334E-1,3.5789185E0,0E0,0E0,0E0,4.3418884E0,0E0,3.4909096E0,0E0,1.3142858E0,0E0,0E0,0E0,2.9520416E0,2.1496503E0,0E0,0E0,3.2033577E0,4.042017E0,7.5E-1,1.8119658E0,4.4E0,3.2086957E0,0E0,0E0,0E0,0E0,0E0,0E0,0E0,0E0,0E0,0E0,0E0,0E0,0E0,0E0,0E0,0E0,0E0,0E0,0E0,0E0,0E0,0E0,0E0,0E0,0E0,0E0,0E0,0E0,0E0,0E0,0E0,0E0,0E0,0E0,0E0,0E0],"parents":[2147483647,0,0,1,1,2,2,3,3,4,4,5,5,6,6,7,7,8,8,9,9,10,10,11,11,12,12,13,13,14,14,15,15,16,16,17,17,18,18,19,19,20,20,21,21,22,22,23,23,24,24,25,25,26,26,27,27,28,28,29,29,31,31,32,32,33,33,34,34,35,35,36,36,37,37,39,39,40,40,41,41,42,42,43,43,45,45,47,47,48,48,49,49,50,50,51,51,53,53,54,54,55,55,56,56,57,57,61,61,62,62,63,63,64,64,65,65,67,67,68,68,69,69,70,70,73,73,75,75,76,76,77,77,79,79,85,85,87,87,88,88,89,89,91,91,95,95,97,97,101,101,102,102,103,103,104,104,105,105,107,107,109,109,110,110,111,111,112,112,113,113,115,115,116,116,117,117,118,118,119,119,120,120,121,121,122,122,127,127,128,128,129,129,134,134,137,137,138,138,139,139,144,144,145,145,149,149,151,151,152,152,159,159,160,160,161,161,165,165,171,171,173,173,175,175,177,177,178,178,179,179,180,180,181,181,185,185,187,187,188,188,189,189,191,191,195,195,196,196,197,197,199,199,205,205,207,207,208,208,211,211,212,212,213,213,216,216,217,217,219,219,221,221,223,223,225,225,227,227,230,230,237,237,238,238,241,241,243,243,245,245,246,246,247,247,248,248,251,251,255,255,256,256,257,257,258,258,259,259,260,260,261,261,263,263,265,265,269,269,273,273,275,275,281,281,282,282,283,283,284,284,285,285,287,287,289,289,290,290,291,291,292,292,293,293,294,294,295,295,299,299,300,300,303,303,307,307,311,311,313,313,317,317,318,318,319,319,323,323,325,325,327,327,329,329,335,335,349,349,351,351,353,353,355,355,357,357,359,359,360,360,361,361,365,365,367,367,369,369,371,371,372,372,375,375,376,376,377,377,378,378,381,381,383,383,386,386,387,387,389,389,391,391,394,394,395,395,399,399,400,400,401,401,403,403,405,405,407,407,408,408,409,409,410,410,411,411,413,413,414,414,419,419,420,420,421,421,425,425,427,427,429,429,433,433,434,434,437,437,438,438,439,439,440,440,441,441,442,442],"right_children":[2,4,6,8,10,12,14,16,18,20,22,24,26,28,30,32,34,36,38,40,42,44,46,48,50,52,54,56,58,60,-1,62,64,66,68,70,72,74,-1,76,78,80,82,84,-1,86,-1,88,90,92,94,96,-1,98,100,102,104,106,-1,-1,-1,108,110,112,114,116,-1,118,120,122,124,-1,-1,126,-1,128,130,132,-1,134,-1,-1,-1,-1,-1,136,-1,138,140,142,-1,144,-1,-1,-1,146,-1,148,-1,-1,-1,150,152,154,156,158,-1,160,-1,162,164,166,168,170,-1,172,174,176,178,180,182,184,186,-1,-1,-1,-1,188,190,192,-1,-1,-1,-1,194,-1,-1,196,198,200,-1,-1,-1,-1,202,204,-1,-1,-1,206,-1,208,210,-1,-1,-1,-1,-1,-1,212,214,216,-1,-1,-1,218,-1,-1,-1,-1,-1,220,-1,222,-1,224,-1,226,228,230,232,234,-1,-1,-1,236,-1,238,240,242,-1,244,-1,-1,-1,246,248,250,-1,252,-1,-1,-1,-1,-1,254,-1,256,258,-1,-1,260,262,264,-1,-1,266,268,-1,270,-1,272,-1,274,-1,276,-1,278,-1,-1,280,-1,-1,-1,-1,-1,-1,282,284,-1,-1,286,-1,288,-1,290,292,294,296,-1,-1,298,-1,-1,-1,300,302,304,306,308,310,312,-1,314,-1,316,-1,-1,-1,318,-1,-1,-1,320,-1,322,-1,-1,-1,-1,-1,324,326,328,330,332,-1,334,-1,336,338,340,342,344,346,348,-1,-1,-1,350,352,-1,-1,354,-1,-1,-1,356,-1,-1,-1,358,-1,360,-1,-1,-1,362,364,366,-1,-1,-1,368,-1,370,-1,372,-1,374,-1,-1,-1,-1,-1,376,-1,-1,-1,-1,-1,-1,-1,-1,-1,-1,-1,-1,-1,378,-1,380,-1,382,-1,384,-1,386,-1,388,390,392,-1,-1,-1,394,-1,396,-1,398,-1,400,402,-1,-1,404,406,408,410,-1,-1,412,-1,414,-1,-1,416,418,-1,420,-1,422,-1,-1,424,426,-1,-1,-1,428,430,432,-1,434,-1,436,-1,438,440,442,444,446,-1,448,450,-1,-1,-1,-1,452,454,456,-1,-1,-1,458,-1,460,-1,462,-1,-1,-1,464,466,-1,-1,468,470,472,474,476,478,-1,-1,-1,-1,-1,-1,-1,-1,-1,-1,-1,-1,-1,-1,-1,-1,-1,-1,-1,-1,-1,-1,-1,-1,-1,-1,-1,-1,-1,-1,-1,-1,-1,-1,-1,-1],"split_conditions":[8.9587975E-1,8.9587975E-1,1.2424533E0,3.465736E-1,1.8688347E0,1.2424533E0,3.465736E-1,3.465736E-1,3.465736E-1,8.9587975E-1,3.465736E-1,8.9587975E-1,3.465736E-1,2.441401E0,1.4978662E0,8.9587975E-1,3.465736E-1,8.9587975E-1,1.4978662E0,1.2424533E0,3.465736E-1,3.465736E-1,8.9587975E-1,3.465736E-1,3.465736E-1,1.3540251E0,8.9587975E-1,3.465736E-1,1.2424533E0,1.7005987E0,-0E0,8.9587975E-1,3.465736E-1,1.7005987E0,1.2424533E0,3.465736E-1,3.465736E-1,3.465736E-1,-6.666667E-2,1.8688347E0,3.465736E-1,3.465736E-1,1.4451859E0,3.465736E-1,-0E0,3.465736E-1,7.692308E-2,2.138333E0,1.7005987E0,3.465736E-1,3.465736E-1,1.8688347E0,-6.666667E-2,1.7005987E0,3.465736E-1,3.465736E-1,2.0126758E0,1.2424533E0,-0E0,1.5918367E-1,-0E0,1.4978662E0,3.465736E-1,3.2384863E0,3.465736E-1,3.465736E-1,5.454546E-2,3.465736E-1,3.465736E-1,8.9587975E-1,3.465736E-1,9.090909E-2,-0E0,1.4978662E0,-0E0,3.465736E-1,2.2499049E0,1.4978662E0,-2.2222223E-2,3.465736E-1,-2.2222223E-2,-8.571429E-2,5E-2,1.4782609E-1,-0E0,8.9587975E-1,-1E-1,3.465736E-1,1.2424533E0,8.9587975E-1,-4.0000003E-2,3.465736E-1,1E-1,-1.07692316E-1,-0E0,1.4978662E0,-1.818182E-2,3.465736E-1,-0E0,-0E0,6.666667E-2,2.3502402E0,1.2424533E0,3.465736E-1,1.2424533E0,3.465736E-1,-0E0,1.2424533E0,5E-2,3.465736E-1,8.9587975E-1,1.4978662E0,3.465736E-1,1.2424533E0,-6.666667E-2,1.2424533E0,3.465736E-1,3.465736E-1,3.465736E-1,3.465736E-1,2.441401E0,3.465736E-1,2.1242476E0,8.0000006E-2,-0E0,1.586207E-1,-0E0,3.465736E-1,3.465736E-1,1.2424533E0,-8.571429E-2,-0E0,1.20000005E-1,1.4545456E-1,3.465736E-1,-5E-2,5.454546E-2,3.465736E-1,8.9587975E-1,1.0397208E0,-7.692308E-2,-0E0,1E-1,4.0000003E-2,3.465736E-1,3.465736E-1,-0E0,-1.5384616E-1,-0E0,3.1132684E0,-0E0,1.2424533E0,1.7005987E0,1.5151516E-1,-0E0,-6.666667E-2,5E-2,-1.6444445E-1,-0E0,1.2424533E0,8.9587975E-1,8.9587975E-1,-0E0,-0E0,6.666667E-2,8.9587975E-1,-0E0,-0E0,5E-2,8.571429E-2,-0E0,1.2424533E0,2.2222223E-2,1.2424533E0,6.666667E-2,3.465736E-1,5E-2,3.465736E-1,3.465736E-1,1.4978662E0,1.0397208E0,3.465736E-1,6.666667E-2,-1.4285715E-1,-0E0,3.465736E-1,-6.666667E-2,3.465736E-1,3.465736E-1,3.465736E-1,8.571429E-2,1.4978662E0,-5E-2,-5E-2,5E-2,1.4978662E0,3.465736E-1,8.9587975E-1,-2.2222223E-2,5.4930615E-1,-5E-2,-0E0,-9.090909E-2,1.483871E-1,-0E0,1.2424533E0,-0E0,2.441401E0,8.9587975E-1,-0E0,1.4285715E-1,1.4978662E0,1.994492E0,3.465736E-1,-0E0,-1.4285715E-1,1.0397208E0,1.8688347E0,-0E0,1.2424533E0,-0E0,3.465736E-1,1.818182E-2,8.9587975E-1,1.818182E-2,3.465736E-1,-6.666667E-2,3.465736E-1,-0E0,1.2380953E-1,3.465736E-1,-6.666667E-2,4.0000003E-2,-1.1578947E-1,-0E0,5.714286E-2,-0E0,1.7005987E0,2.0126758E0,9.090909E-2,-0E0,3.465736E-1,4.0000003E-2,8.9587975E-1,-2.2222223E-2,2.1910133E0,2.4814224E0,8.9587975E-1,1.3540251E0,8.0000006E-2,-0E0,3.465736E-1,-5E-2,-1.5294118E-1,-0E0,1.2424533E0,2.2499049E0,3.465736E-1,1.7005987E0,2.138333E0,1.3540251E0,3.465736E-1,5E-2,3.465736E-1,-0E0,2.2386684E0,-6.666667E-2,-1.5675676E-1,-0E0,3.465736E-1,-0E0,-1.1111112E-1,-0E0,8.9587975E-1,-0E0,3.465736E-1,-0E0,-1.3333334E-1,-0E0,-2.2222223E-2,5E-2,1.7005987E0,5.4930615E-1,1.2424533E0,2.441401E0,3.465736E-1,-0E0,3.465736E-1,-0E0,1.4978662E0,3.465736E-1,5.4930615E-1,8.9587975E-1,3.465736E-1,8.9587975E-1,8.9587975E-1,5E-2,1.0588236E-1,-0E0,8.9587975E-1,1.2424533E0,1.1111112E-1,-2.2222223E-2,3.465736E-1,-5E-2,-1E-1,5E-2,1.4978662E0,-0E0,5.454546E-2,-8.571429E-2,3.465736E-1,-0E0,3.465736E-1,-0E0,5E-2,-0E0,1.4978662E0,3.465736E-1,8.9587975E-1,-0E0,1.3333334E-1,-0E0,3.465736E-1,2.2222223E-2,3.465736E-1,-8.0000006E-2,3.465736E-1,5E-2,1.2424533E0,-8.0000006E-2,-1.3333334E-1,-0E0,-0E0,1.4545456E-1,2.3502402E0,-0E0,1.818182E-2,-5E-2,-6.666667E-2,-0E0,-0E0,5E-2,-9.3333334E-2,-0E0,9.3333334E-2,-0E0,-1.5E-1,2.2222223E-2,3.465736E-1,-1.36E-1,1.2424533E0,-2.2222223E-2,3.465736E-1,-2.2222223E-2,1.4978662E0,-0E0,3.465736E-1,-0E0,1.4451859E0,3.465736E-1,2.673554E0,-0E0,4.0000003E-2,-6.666667E-2,3.465736E-1,-0E0,3.878953E0,2.2222223E-2,3.465736E-1,-0E0,3.465736E-1,3.465736E-1,1.1111112E-1,-0E0,8.9587975E-1,2.0126758E0,3.465736E-1,3.465736E-1,-0E0,1.0588236E-1,1.4978662E0,-0E0,8.9587975E-1,-0E0,-1.5555556E-1,3.465736E-1,8.9587975E-1,-0E0,3.465736E-1,5E-2,1.7005987E0,-0E0,-1.7402598E-1,2.2154083E0,1.7005987E0,-0E0,1E-1,-0E0,2.393746E0,1.1512926E0,1.0397208E0,5E-2,3.465736E-1,-0E0,3.465736E-1,-5.454546E-2,3.465736E-1,8.9587975E-1,3.465736E-1,8.9587975E-1,8.9587975E-1,-0E0,1.4978662E0,3.465736E-1,2.2222223E-2,-5E-2,-1.6705883E-1,-0E0,3.465736E-1,3.465736E-1,1.8688347E0,-0E0,-0E0,-6.666667E-2,1.7005987E0,-0E0,1.4978662E0,-0E0,1.2424533E0,-5E-2,-5E-2,-0E0,1.7005987E0,3.465736E-1,5E-2,-0E0,1.2424533E0,5.4930615E-1,3.465736E-1,3.465736E-1,3.465736E-1,8.9587975E-1,-9.090909E-2,-0E0,1.5121952E-1,-0E0,-1.7778656E-1,-0E0,-1.3913044E-1,2.0000001E-2,-1.3846155E-1,-0E0,5E-2,-3.3333335E-2,-1.5487914E-1,-0E0,-1.3197783E-1,-0E0,-1.6000001E-1,-0E0,8.0000006E-2,-0E0,-1.5729167E-1,-0E0,1.5384616E-2,-9.090909E-2,-9.126214E-2,-0E0,8.571429E-2,-5.8823533E-2,-0E0,1E-1,2.2222223E-2,-7.692308E-2,1E-1,-1.3333335E-2,-9.3333334E-2,3.3333335E-2],"split_indices":[39,222,39,248,222,222,248,322,223,313,350,223,307,307,14,166,120,316,101,79,181,58,97,248,206,263,279,314,28,110,0,313,24,192,322,205,350,307,0,308,286,53,113,183,0,285,0,108,88,97,179,334,0,81,177,42,300,223,0,0,0,197,40,62,192,35,0,90,218,280,14,0,0,150,0,288,129,79,0,213,0,0,0,0,0,81,0,290,308,268,0,299,0,0,0,1,0,298,0,0,0,90,186,6,315,138,0,28,0,345,81,192,2,268,0,203,16,341,279,306,322,51,62,0,0,0,0,248,37,176,0,0,0,0,20,0,0,38,1,129,0,0,0,0,42,226,0,0,0,62,0,222,277,0,0,0,0,0,0,126,319,150,0,0,0,220,0,0,0,0,0,78,0,322,0,160,0,101,309,268,325,164,0,0,0,39,0,183,334,356,0,350,0,0,0,102,110,110,0,296,0,0,0,0,0,101,0,81,244,0,0,218,150,321,0,0,124,135,0,105,0,55,0,190,0,260,0,251,0,0,24,0,0,0,0,0,0,165,280,0,0,13,0,1,0,308,76,280,165,0,0,36,0,0,0,223,88,0,222,16,299,35,0,200,0,62,0,0,0,351,0,0,0,218,0,153,0,0,0,0,0,180,205,218,81,14,0,124,0,253,114,16,315,20,279,310,0,0,0,317,279,0,0,335,0,0,0,170,0,0,0,13,0,40,0,0,0,51,39,79,0,0,0,236,0,161,0,123,0,315,0,0,0,0,0,315,0,0,0,0,0,0,0,0,0,0,0,0,0,97,0,40,0,9,0,34,0,183,0,301,161,144,0,0,0,356,0,135,0,28,0,51,14,0,0,160,62,109,96,0,0,38,0,17,0,0,97,79,0,334,0,20,0,0,62,153,0,0,0,114,1,88,0,311,0,83,0,320,280,206,63,266,0,40,19,0,0,0,0,356,218,111,0,0,0,187,0,125,0,129,0,0,0,192,107,0,0,176,110,63,223,38,192,0,0,0,0,0,0,0,0,0,0,0,0,0,0,0,0,0,0,0,0,0,0,0,0,0,0,0,0,0,0,0,0,0,0,0,0],"split_type":[0,0,0,0,0,0,0,0,0,0,0,0,0,0,0,0,0,0,0,0,0,0,0,0,0,0,0,0,0,0,0,0,0,0,0,0,0,0,0,0,0,0,0,0,0,0,0,0,0,0,0,0,0,0,0,0,0,0,0,0,0,0,0,0,0,0,0,0,0,0,0,0,0,0,0,0,0,0,0,0,0,0,0,0,0,0,0,0,0,0,0,0,0,0,0,0,0,0,0,0,0,0,0,0,0,0,0,0,0,0,0,0,0,0,0,0,0,0,0,0,0,0,0,0,0,0,0,0,0,0,0,0,0,0,0,0,0,0,0,0,0,0,0,0,0,0,0,0,0,0,0,0,0,0,0,0,0,0,0,0,0,0,0,0,0,0,0,0,0,0,0,0,0,0,0,0,0,0,0,0,0,0,0,0,0,0,0,0,0,0,0,0,0,0,0,0,0,0,0,0,0,0,0,0,0,0,0,0,0,0,0,0,0,0,0,0,0,0,0,0,0,0,0,0,0,0,0,0,0,0,0,0,0,0,0,0,0,0,0,0,0,0,0,0,0,0,0,0,0,0,0,0,0,0,0,0,0,0,0,0,0,0,0,0,0,0,0,0,0,0,0,0,0,0,0,0,0,0,0,0,0,0,0,0,0,0,0,0,0,0,0,0,0,0,0,0,0,0,0,0,0,0,0,0,0,0,0,0,0,0,0,0,0,0,0,0,0,0,0,0,0,0,0,0,0,0,0,0,0,0,0,0,0,0,0,0,0,0,0,0,0,0,0,0,0,0,0,0,0,0,0,0,0,0,0,0,0,0,0,0,0,0,0,0,0,0,0,0,0,0,0,0,0,0,0,0,0,0,0,0,0,0,0,0,0,0,0,0,0,0,0,0,0,0,0,0,0,0,0,0,0,0,0,0,0,0,0,0,0,0,0,0,0,0,0,0,0,0,0,0,0,0,0,0,0,0,0,0,0,0,0,0,0,0,0,0,0,0,0,0,0,0,0,0,0,0,0,0,0,0,0,0,0,0,0,0,0,0,0,0,0,0,0,0,0,0,0,0,0,0,0,0,0,0,0,0,0,0,0],"sum_hessian":[2.9735E3,2.638E3,3.355E2,2.406E3,2.32E2,1.8525E2,1.5025E2,2.37625E3,2.975E1,2.1775E2,1.425E1,1.625E2,2.275E1,1.3625E2,1.4E1,2.019E3,3.5725E2,1.975E1,1E1,2.065E2,1.125E1,7.25E0,7E0,1.52E2,1.05E1,1.175E1,1.1E1,1.21E2,1.525E1,1.3E1,1E0,1.99075E3,2.825E1,3.0025E2,5.7E1,1.675E1,3E0,8.75E0,1.25E0,2.015E2,5E0,7.75E0,3.5E0,6.25E0,1E0,4.75E0,2.25E0,1.4725E2,4.75E0,7.25E0,3.25E0,1.05E1,1.25E0,8.25E0,2.75E0,1.105E2,1.05E1,1.375E1,1.5E0,1.125E1,1.75E0,1.97575E3,1.5E1,2.275E1,5.5E0,2.985E2,1.75E0,4.075E1,1.625E1,1.425E1,2.5E0,1.75E0,1.25E0,7.25E0,1.5E0,1.9025E2,1.125E1,3.75E0,1.25E0,6.5E0,1.25E0,2.5E0,1E0,4.75E0,1.5E0,2.75E0,2E0,1.3825E2,9E0,3.25E0,1.5E0,4.25E0,3E0,2.25E0,1E0,8.75E0,1.75E0,7E0,1.25E0,1.5E0,1.25E0,1.1E1,9.95E1,8.25E0,2.25E0,1.2E1,1.75E0,1.97475E3,1E0,1.2E1,3E0,2.075E1,2E0,4.25E0,1.25E0,2.905E2,8E0,2.8E1,1.275E1,9.25E0,7E0,8.75E0,5.5E0,1.5E0,1E0,6.25E0,1E0,1.8E2,1.025E1,8.75E0,2.5E0,1E0,2.75E0,4.5E0,2E0,1E0,1.75E0,1.345E2,3.75E0,6.75E0,2.25E0,1.25E0,2E0,1.5E0,2.75E0,7.75E0,1E0,5.5E0,1.5E0,9.5E0,1.5E0,9.4E1,5.5E0,7.25E0,1E0,1.25E0,1E0,1.025E1,1.75E0,1.93725E3,3.75E1,1.1E1,1E0,1.75E0,1.25E0,1.975E1,1E0,1E0,1E0,2.5E0,1.75E0,2.8925E2,1.25E0,6.75E0,1.25E0,2.7E1,1E0,7.25E0,5.5E0,6.5E0,2.75E0,5E0,2E0,7.75E0,1E0,3.5E0,2E0,1.7725E2,2.75E0,7.75E0,2.5E0,7.75E0,1E0,1E0,1E0,1.1525E2,1.925E1,2.5E0,1.25E0,5.75E0,1E0,1E0,1.75E0,6.75E0,1E0,8.5E0,1E0,7.375E1,2.025E1,1.25E0,4.25E0,1.923E3,1.425E1,3.65E1,1E0,7.75E0,3.25E0,1.85E1,1.25E0,2.875E2,1.75E0,5E0,1.75E0,2.525E1,1.75E0,6E0,1.25E0,4.5E0,1E0,4.25E0,2.25E0,1.25E0,1.5E0,3.75E0,1.25E0,2.5E0,1E0,1.4575E2,3.15E1,1.75E0,1E0,6.25E0,1.5E0,6.5E0,1.25E0,1.1075E2,4.5E0,8E0,1.125E1,1.5E0,1E0,4.75E0,1E0,7.5E0,1E0,6.9E1,4.75E0,1.625E1,4E0,1.91875E3,4.25E0,1.325E1,1E0,3.45E1,2E0,2E0,1.25E0,1.75E1,1E0,2.865E2,1E0,3.5E0,1.5E0,2.375E1,1.5E0,4.75E0,1.25E0,3.5E0,1E0,1.25E0,1E0,1.4025E2,5.5E0,2.475E1,6.75E0,4.5E0,1.75E0,5.5E0,1E0,1.08E2,2.75E0,2.25E0,2.25E0,4.25E0,3.75E0,1.025E1,1E0,3.25E0,1.5E0,6.35E1,5.5E0,3.5E0,1.25E0,1.525E1,1E0,3E0,1E0,1.91775E3,1E0,1.75E0,2.5E0,1.175E1,1.5E0,3.325E1,1.25E0,1E0,1E0,2.8375E2,2.75E0,2.225E1,1.5E0,3.5E0,1.25E0,1.39E2,1.25E0,4E0,1.5E0,2.375E1,1E0,5.25E0,1.5E0,3.5E0,1E0,1E0,4.5E0,1.0675E2,1.25E0,1.75E0,1E0,1.25E0,1E0,1.25E0,1E0,2.75E0,1.5E0,2.75E0,1E0,9E0,1.25E0,5.825E1,5.25E0,4.25E0,1.25E0,1.4E1,1.25E0,1.91675E3,1E0,1.025E1,1.5E0,2.25E1,1.075E1,2.825E2,1.25E0,1.5E0,1.25E0,2.075E1,1.5E0,1.3775E2,1.25E0,3E0,1E0,2.075E1,3E0,3.5E0,1.75E0,1.03E2,3.75E0,3.9E1,1.925E1,1E0,3.25E0,1.275E1,1.25E0,1.91475E3,2E0,8E0,2.25E0,2.15E1,1E0,9.75E0,1E0,2.8125E2,1.25E0,1.825E1,2.5E0,1.3625E2,1.5E0,2E0,1E0,1.725E1,3.5E0,2E0,1E0,1.015E2,1.5E0,2E0,1.75E0,3.25E1,6.5E0,1.65E1,2.75E0,1.125E1,1.5E0,1.90025E3,1.45E1,1.25E0,1E0,2.025E1,1.25E0,6.75E0,3E0,2.7975E2,1.5E0,1.25E0,1.25E0,1.3525E2,1E0,1.55E1,1.75E0,2.5E0,1E0,1E0,1E0,9.75E1,4E0,1E0,1E0,2.675E1,5.75E0,3E0,3.5E0,1.175E1,4.75E0,1.75E0,1E0,9.25E0,2E0,1.89875E3,1.5E0,1.05E1,4E0,5.5E0,1.25E0,1E0,2E0,2.7825E2,1.5E0,1.3425E2,1E0,1.4E1,1.5E0,1.5E0,1E0,9.5E1,2.5E0,2.25E0,1.75E0,2.475E1,2E0,2.5E0,3.25E0,1E0,2E0,1.25E0,2.25E0,9E0,2.75E0,2.75E0,2E0],"tree_param":{"num_deleted":"0","num_feature":"357","num_nodes":"479","size_leaf_vector":"0"}},{"base_weights":[-1.3056006E0,-1.4133724E0,-4.5627567E-1,-1.4863217E0,-6.5213543E-1,-8.2209045E-1,-0E0,-1.5047517E0,-0E0,-7.3494893E-1,5.114074E-1,-9.1698635E-1,1.80077E-1,-1.2939115E-1,1.1529855E0,-1.564837E0,-1.1597292E0,-2.897689E-1,8.5891384E-1,-7.99206E-1,3.3049574E-1,9.483177E-1,-0E0,-1.0037977E0,-1.2806523E-1,6.6449016E-1,-5.21899E-1,-7.322561E-3,-9.7757965E-1,1.3075535E0,-0E0,-1.5755051E0,-7.531216E-1,-1.2862252E0,-4.666767E-1,3.3091272E-3,-9.2352444E-1,1.3782243E0,-1.7214215E-1,-9.6153706E-1,-4.088624E-1,6.732911E-1,-1.8595645E-1,1.218013E0,-0E0,-4.0842316E-1,7.1673584E-1,-1.045285E0,6.269726E-2,7.93961E-2,-1.1887054E0,6.405955E-3,1.1624092E0,-8.2813597E-1,-0E0,-1.15329705E-1,9.546449E-1,-1.2885298E0,-0E0,1.4543812E0,-0E0,-1.5856962E0,-9.0382767E-1,-9.6489525E-1,-0E0,-1.4063278E0,-9.018526E-1,-7.515333E-1,1.9028682E-1,-2.4078579E-1,6.377166E-1,-1.2163873E0,-0E0,-1.1006016E0,-4.9435732E-1,-6.572091E-1,3.1626604E-2,9.828193E-1,-2.0989144E-1,-8.5557765E-1,1.8713865E-1,-7.8703797E-1,-0E0,-1.072664E0,3.0023223E-1,5.4185206E-1,-3.7609342E-1,3.7259522E-1,-8.073489E-1,3.891896E-1,-3.613494E-1,-1.0125178E0,-0E0,-9.9154085E-1,-0E0,1.2383722E0,-0E0,-1.4932983E0,-0E0,-4.3958133E-1,4E-1,-1.6500639E0,-1.482672E0,-1.0795771E0,1.743254E-1,-1.1441315E0,3.1673613E-1,4.3577978E-1,-6.3003194E-1,-1.4261059E0,-0E0,-9.554112E-1,5.109941E-1,-1.0336157E0,-3.0376833E-2,-1.5922564E-1,6.3958794E-1,2.3526914E-1,-8.3855206E-1,9.1196686E-1,-0E0,-1.4023762E0,-0E0,-1.1626512E0,-0E0,-1.3013035E-1,-1.0306804E0,-8.1810725E-1,-0E0,-3.754398E-1,4.585192E-1,1.2619147E0,-0E0,-0E0,-9.637637E-1,-1.1094486E0,-0E0,9.512287E-1,-0E0,-0E0,9.4842076E-1,9.125079E-1,-2.1103731E-1,-1.1337814E0,-0E0,-7.771261E-2,9.8695636E-1,1.3892359E0,-0E0,-8.5151124E-1,-0E0,-1.6523696E0,-0E0,-1.4959457E0,-3.6704487E-1,-1.2609476E0,-3.71527E-2,6.2304765E-1,-1.5578945E-1,-1.2479991E0,-0E0,7.9700017E-1,-0E0,-1.4518127E0,-0E0,-4.8236486E-1,6.6420674E-1,-1.0198437E0,-0E0,-1.1544862E0,1.702572E-1,3.7863326E-1,-6.992104E-1,2.5780788E-1,-7.6544344E-1,9.2927563E-1,-1.9771226E-1,6.538289E-1,-1.7114495E-1,-1.0393512E0,-0E0,1.099957E0,-0E0,-1.2163765E0,-0E0,3.250747E-1,-6.092706E-1,-4.4096103E-1,5.098403E-1,-1.2317108E0,-0E0,-9.9761695E-1,-0E0,9.569636E-1,-4.8131895E-1,-7.256884E-1,2.954161E-1,-2.5811392E-1,1.1761184E0,-1.137797E0,5.19114E-2,4.3276507E-1,-1.7650566E-1,3.213266E-1,-4.583987E-1,1.263335E0,-0E0,-1.2536782E0,-0E0,-1.6255625E-1,6.399838E-1,-0E0,1.3185489E0,-1.6546148E0,-0E0,-1.505583E0,-2.001815E-1,-0E0,-7.951987E-1,-1.3515563E0,-0E0,2.6705474E-1,-7.0905155E-1,-1.3542233E0,-0E0,-1.4630489E0,-0E0,-5.407407E-1,6.512857E-1,-1.0617414E0,2.843052E-1,6.1137694E-1,-2.312072E-1,-1.2323103E0,-0E0,7.923304E-1,-6.3003194E-1,-1.0090314E0,-0E0,-0E0,8.557394E-1,-1.1507391E0,-0E0,-0E0,1.1219457E0,-1.2464834E0,1.7169829E-1,-5.804892E-1,5.003904E-1,-1.1849623E-1,8.66624E-1,7.06355E-2,-6.420424E-1,1.1309673E0,-7.228111E-1,-1.433243E0,-0E0,-1.1173456E0,1.6427067E-1,5.1095665E-1,-8.7786955E-1,4.090642E-3,-9.148671E-1,-1.229345E0,-0E0,-0E0,6.667723E-1,1.4389469E-1,-1.0125108E0,1.3258785E0,-0E0,-1.1590095E0,2.2440675E-1,-0E0,2.73088E-1,-0E0,5.9061474E-1,-7.8267765E-1,-0E0,-1.4019318E0,-0E0,-2.9333648E-1,2.6863092E-1,1.038429E0,-0E0,-1.6561204E0,-0E0,-1.5110593E0,-0E0,-5.7978946E-1,3.8802359E-1,2.7898845E-1,-5.729941E-1,-9.394451E-1,-0E0,-1.4520451E0,-0E0,-0E0,7.986332E-1,-1.4278507E0,-0E0,-1.473925E0,-0E0,-7.565333E-1,-0E0,-1.121182E0,-0E0,-1.3158345E0,-0E0,1.0522337E0,-0E0,-1.2340361E0,-0E0,-2.0907004E-1,-0E0,1.3200784E0,-0E0,-1.2741145E0,-0E0,-7.228111E-1,-0E0,-3.298845E-1,7.1469295E-1,-8.4664786E-1,7.2723985E-2,1.3278601E0,-0E0,-1.5828239E0,-0E0,-1.2395134E0,-0E0,1.1586015E0,-1.3477461E-1,3.4213835E-1,-7.330597E-1,8.9447665E-1,-3.3944136E-1,-1.1882061E0,-0E0,7.297677E-1,-0E0,-1.7989704E-1,-9.853498E-1,4.8094466E-1,-3.4496206E-1,1.3776184E0,-0E0,-2.1092942E-1,-0E0,-1.6576293E0,-0E0,-1.5175095E0,-0E0,-0E0,-8.6450416E-1,-5.6040816E-2,8.3615345E-1,-1.5217335E0,-0E0,-1.4879533E0,-0E0,-1.1674523E0,-0E0,5.26815E-1,-7.098017E-1,-1.4012169E0,-0E0,1.2340363E0,-0E0,-1.3016974E0,-0E0,-1.1518934E0,-0E0,-1.3845838E0,-0E0,7.416705E-1,-0E0,-1.2045617E0,-0E0,1.7091836E-1,-6.0316247E-1,1.2121112E-1,-4.5443374E-1,-1.4255912E0,-0E0,-0E0,1.1739404E0,-8.735503E-1,-0E0,-1.6591412E0,-0E0,-1.5226073E0,-0E0,-4.4999042E-1,3.2213998E-1,-1.0694628E0,-0E0,-1.5998672E0,-7.56285E-2,-1.498761E0,-0E0,-5.82728E-1,2.7182147E-1,-1.2022225E0,-0E0,2.718215E-1,-3.08363E-1,-1.5020736E0,-0E0,-1.3426138E0,-1.143913E-1,-1.2881244E0,-0E0,2.87673E-1,-1.3161375E-1,-1.4533812E0,-0E0,4.4290755E-2,-1.7855178E-1,-1.2276886E0,-0E0,-0E0,6.8256086E-1,-2.530573E-1,4.5869198E-1,-6.0504174E-1,6.642262E-1,2.255323E-1,-1.9441967E-1,-4.6950644E-1,6.024329E-1,1.3654866E0,-0E0,-1.6606565E0,-0E0,-1.5371562E0,-7.7607745E-1,-3.6298224E-1,2.2322716E-1,-0E0,-5.748111E-1,-1.51019E0,-0E0,-1.2453637E0,-0E0,-1.5693645E0,-0E0,-1.366012E0,-0E0,-6.8793285E-1,2.4017777E-1,-1.5242695E0,-0E0,-1.244223E0,-0E0,2.3739278E-1,-3.3321375E-1,-5.129777E-1,2.9405004E-1,7.8640264E-1,-6.198513E-1,-4.398021E-2,-8.965843E-1,-0E0,-7.954653E-1,8.293406E-1,-0E0,-1.6621748E0,-0E0,-1.5406002E0,-0E0,-9.27062E-1,2.1114276E-1,-1.5177803E0,-0E0,-1.2804664E0,-0E0,-1.403068E0,-0E0,-1.6063441E0,-0E0,-1.2609483E0,-0E0,-7.433136E-1,1.9090164E-1,9.517409E-1,-0E0,-4.731767E-1,4.8855996E-1,-1.0253223E0,-0E0,-1.126613E0,-0E0,-1.6636571E0,-0E0,-1.5459659E0,-1.8886395E-1,-1.1086122E0,-0E0,-1.5252856E0,-0E0,-1.3252739E0,-0E0,-1.4198843E0,-0E0,-3.8628605E-1,-0E0,-1.2774538E0,-0E0,-8.9685446E-1,-0E0,3.9290327E-1,1.4091163E0,-9.126116E-1,3.3929372E-1,7.5170946E-1,-0E0,-1.1681145E0,-0E0],"categories":[],"categories_nodes":[],"categories_segments":[],"categories_sizes":[],"default_left":[1,1,1,1,1,1,1,1,1,1,1,1,1,1,1,1,1,1,1,1,1,1,1,1,1,1,1,1,1,1,0,1,1,1,1,1,1,0,0,1,1,1,1,0,0,1,0,1,1,1,0,1,0,1,0,1,1,1,1,0,0,1,1,1,1,1,1,1,1,1,1,1,0,1,1,1,1,1,0,0,0,1,0,1,0,1,0,1,0,1,0,0,0,1,1,1,0,0,0,1,0,1,1,1,1,1,0,1,0,1,1,1,0,1,1,1,1,1,1,1,0,0,0,1,1,1,1,1,1,1,1,0,0,0,0,1,1,0,0,1,1,0,0,1,0,1,1,0,0,0,0,1,0,1,1,1,1,0,0,1,0,0,0,1,1,0,0,1,1,1,0,1,1,1,1,1,0,0,0,0,0,0,0,1,1,1,0,1,1,1,0,1,1,0,1,1,1,1,1,1,1,0,0,1,1,0,0,1,0,1,1,0,0,1,0,1,1,1,1,1,0,1,0,1,0,1,0,1,0,1,0,0,0,1,0,1,0,1,0,1,0,0,0,0,1,1,0,1,0,0,0,1,1,1,0,1,0,1,0,1,0,0,0,0,1,0,0,1,0,0,0,1,0,0,0,0,1,0,0,0,0,1,1,1,1,1,0,1,0,1,0,1,0,0,0,1,0,0,0,0,0,1,0,0,0,1,1,1,0,1,0,0,0,0,0,0,0,1,0,0,0,0,0,1,0,0,0,0,0,1,0,0,0,1,0,0,0,1,1,0,0,1,1,1,1,0,0,0,0,1,0,1,1,0,1,0,0,1,0,1,1,1,1,0,0,1,0,0,0,1,0,1,1,1,1,0,0,1,0,1,0,1,1,0,1,1,1,0,0,1,0,1,1,1,0,0,0,0,0,1,0,0,0,1,0,0,0,1,0,1,1,0,0,0,0,1,0,0,0,1,1,0,0,1,1,1,0,0,0,1,1,0,0,1,0,1,1,0,0,0,0,1,0,1,0,0,0,1,0,0,0,1,0,1,0,0,0,1,0,1,0,1,1,0,1,0,0,1,0,1,0,1,0,1,0,1,0,1,1,0,0,1,0,1,0,1,0,1,1,1,0,0,0,0,0,0,0,0,0,0,0,0,0,0,0,0,0,0,0,0,0,0,0,0,0,0,0,0,0],"id":1,"left_children":[1,3,5,7,9,11,13,15,17,19,21,23,25,27,29,31,33,35,37,39,41,43,45,47,49,51,53,55,57,59,-1,61,63,65,67,69,71,-1,-1,73,75,77,79,-1,-1,81,-1,83,85,87,-1,89,-1,91,-1,93,95,97,99,-1,-1,101,103,105,107,109,111,113,115,117,119,121,-1,123,125,127,129,131,-1,-1,-1,133,-1,135,-1,137,-1,139,-1,141,-1,-1,-1,143,145,147,-1,-1,-1,149,-1,151,153,155,157,159,-1,161,-1,163,165,167,-1,169,171,173,175,177,179,181,-1,-1,-1,183,185,187,189,191,193,195,197,-1,-1,-1,-1,199,201,-1,-1,203,205,-1,-1,207,-1,209,211,-1,-1,-1,-1,213,-1,215,217,219,221,-1,-1,223,-1,-1,-1,225,227,-1,-1,229,231,233,-1,235,237,239,241,243,-1,-1,-1,-1,-1,-1,-1,245,247,249,-1,251,253,255,-1,257,259,-1,261,263,265,267,269,271,273,-1,-1,275,277,-1,-1,279,-1,281,283,-1,-1,285,-1,287,289,291,293,295,-1,297,-1,299,-1,301,-1,303,-1,305,-1,-1,-1,307,-1,309,-1,311,-1,313,-1,-1,-1,-1,315,317,-1,319,-1,-1,-1,321,323,325,-1,327,-1,329,-1,331,-1,-1,-1,-1,333,-1,-1,335,-1,-1,-1,337,-1,-1,-1,-1,339,-1,-1,-1,-1,341,343,345,347,349,-1,351,-1,353,-1,355,-1,-1,-1,357,-1,-1,-1,-1,-1,359,-1,-1,-1,361,363,365,-1,367,-1,-1,-1,-1,-1,-1,-1,369,-1,-1,-1,-1,-1,371,-1,-1,-1,-1,-1,373,-1,-1,-1,375,-1,-1,-1,377,379,-1,-1,381,383,385,387,-1,-1,-1,-1,389,-1,391,393,-1,395,-1,-1,397,-1,399,401,403,405,-1,-1,407,-1,-1,-1,409,-1,411,413,415,417,-1,-1,419,-1,421,-1,423,425,-1,427,429,431,-1,-1,433,-1,435,437,439,-1,-1,-1,-1,-1,441,-1,-1,-1,443,-1,-1,-1,445,-1,447,449,-1,-1,-1,-1,451,-1,-1,-1,453,455,-1,-1,457,459,461,-1,-1,-1,463,465,-1,-1,467,-1,469,471,-1,-1,-1,-1,473,-1,475,-1,-1,-1,477,-1,-1,-1,479,-1,481,-1,-1,-1,483,-1,485,-1,487,489,-1,491,-1,-1,493,-1,495,-1,497,-1,499,-1,501,-1,503,505,-1,-1,507,-1,509,-1,511,-1,513,515,517,-1,-1,-1,-1,-1,-1,-1,-1,-1,-1,-1,-1,-1,-1,-1,-1,-1,-1,-1,-1,-1,-1,-1,-1,-1,-1,-1,-1,-1],"loss_changes":[2.6797754E2,1.4243213E2,5.5553703E1,6.4572754E1,2.2970833E1,1.8541557E1,2.2137712E1,4.4385254E1,7.5443583E0,1.5654785E1,3.4170203E0,1.0417526E1,5.9193892E0,1.3178683E1,3.9681282E0,1.3844238E1,2.8888885E1,5.4156046E0,5.4449997E0,1.1336441E1,2.775876E0,3.321394E0,2.625851E0,7.787735E0,5.426515E0,2.3400493E0,1.3813931E0,1.19138E1,3.9472742E0,1.9469757E0,0E0,9.606445E0,5.485628E0,1.0253021E1,1.1519882E1,3.0987318E0,2.8863811E0,0E0,0E0,7.1817017E0,7.677367E0,3.3643324E0,1.9514947E0,0E0,0E0,1.67152E0,0E0,6.5310516E0,1.5772997E0,4.0779915E0,0E0,1.0824655E0,0E0,2.4565697E-1,0E0,1.027544E1,3.681035E0,3.3297157E0,1.1709763E0,0E0,0E0,7.3134766E0,7.4094563E0,6.6207733E0,1.8886898E0,6.4880066E0,6.690399E0,7.362623E0,3.2857745E0,4.064864E0,1.5062351E0,9.473934E-1,0E0,7.769989E0,5.8105354E0,5.2757034E0,4.1954575E0,2.6956272E0,0E0,0E0,0E0,1.545093E-1,0E0,6.7653046E0,0E0,1.4647704E0,0E0,3.4807487E0,0E0,2.4630878E0,0E0,0E0,0E0,1.686285E0,6.8829727E0,1.7203913E0,0E0,0E0,0E0,1.2180903E0,0E0,5.6066895E0,8.893066E0,4.250828E0,1.2657788E0,3.8200073E0,0E0,1.2241938E0,0E0,6.915619E0,1.6309026E0,5.5816956E0,0E0,5.3803406E0,4.337902E0,3.0390105E0,3.0944023E0,1.6552498E0,4.6216822E-1,2.8654838E-1,0E0,0E0,0E0,5.743286E0,1.3869152E0,4.9136987E0,3.4751596E0,4.5854664E0,4.6976748E0,3.219294E0,7.76137E0,0E0,0E0,0E0,0E0,5.806305E0,6.9395125E-1,0E0,0E0,1.509962E0,1.7801065E0,0E0,0E0,1.4213972E0,0E0,5.398799E0,2.7794404E0,0E0,0E0,0E0,0E0,5.3535156E0,0E0,7.399292E0,1.9520907E0,3.042797E0,1.9055359E0,0E0,0E0,3.4136963E0,0E0,0E0,0E0,4.4409485E0,2.1950564E0,0E0,0E0,4.9375534E0,1.1847371E0,3.143505E0,0E0,4.0970163E0,2.4137673E0,1.6624218E0,2.0319664E0,8.580713E-1,0E0,0E0,0E0,0E0,0E0,0E0,0E0,5.368759E0,2.0720441E0,2.1085794E0,0E0,2.4362223E0,6.7619686E0,3.7285957E0,0E0,5.086731E0,4.250744E0,0E0,2.0683393E0,2.3155222E0,6.9409955E-1,2.981221E0,5.160408E-1,5.2138977E0,1.5804887E-1,0E0,0E0,7.895707E-1,1.142457E0,0E0,0E0,1.7575712E0,0E0,4.9991236E0,3.3136785E0,0E0,0E0,2.4770508E0,0E0,7.22229E0,2.087004E0,1.1618867E0,2.7097535E-1,3.2929153E0,0E0,1.3079798E0,0E0,1.9336281E0,0E0,3.6461487E0,0E0,1.8827415E-1,0E0,4.3096313E0,0E0,0E0,0E0,3.3442955E0,0E0,1.964428E0,0E0,1.2451816E0,0E0,9.824943E-2,0E0,0E0,0E0,0E0,7.237487E-1,3.4786377E0,0E0,4.27655E-2,0E0,0E0,0E0,1.7782851E0,2.9119725E0,5.7927704E-1,0E0,1.5961742E0,0E0,3.8469849E0,0E0,3.3691068E0,0E0,0E0,0E0,0E0,1.748877E0,0E0,0E0,2.3975046E0,0E0,0E0,0E0,3.8157654E0,0E0,0E0,0E0,0E0,2.3476958E-2,0E0,0E0,0E0,0E0,4.0638785E0,2.7700922E0,2.951314E0,1.0003178E-1,2.4819336E0,0E0,5.9746094E0,0E0,1.5287604E0,0E0,1.8491936E0,0E0,0E0,0E0,1.5446701E0,0E0,0E0,0E0,0E0,0E0,3.3938599E0,0E0,0E0,0E0,3.2208328E0,2.15447E0,2.7656555E0,0E0,4.7998285E-1,0E0,0E0,0E0,0E0,0E0,0E0,0E0,3.3274384E0,0E0,0E0,0E0,0E0,0E0,3.4823608E0,0E0,0E0,0E0,0E0,0E0,3.9419746E0,0E0,0E0,0E0,8.260585E-1,0E0,0E0,0E0,3.4356537E0,9.2614245E-1,0E0,0E0,5.483383E0,3.6718755E0,5.6372266E0,1.5918021E0,0E0,0E0,0E0,0E0,2.487793E0,0E0,5.114746E0,9.373689E-1,0E0,4.5289087E-1,0E0,0E0,4.781456E-1,0E0,2.3701172E0,9.274138E-1,3.3866348E0,4.027797E-1,0E0,0E0,2.8417854E0,0E0,0E0,0E0,2.8780212E0,0E0,9.980192E-1,2.3326382E-1,1.5530167E0,7.6521434E-2,0E0,0E0,3.3302917E0,0E0,9.3817186E-1,0E0,3.9148397E0,6.1026316E0,0E0,1.9922502E-1,3.0594196E0,9.5021725E-1,0E0,0E0,2.4926758E0,0E0,4.5097656E0,4.4110847E-1,3.5529017E-2,0E0,0E0,0E0,0E0,0E0,3.2467346E0,0E0,0E0,0E0,3.4203568E0,0E0,0E0,0E0,7.339859E-1,0E0,2.348648E0,1.6268024E0,0E0,0E0,0E0,0E0,7.8629684E-1,0E0,0E0,0E0,3.3801117E0,4.0333927E-1,0E0,0E0,2.179737E0,6.5634537E0,4.1631308E0,0E0,0E0,0E0,1.72866E0,2.567978E-1,0E0,0E0,2.4985352E0,0E0,3.5280762E0,3.51155E0,0E0,0E0,0E0,0E0,1.9191284E0,0E0,2.8417282E0,0E0,0E0,0E0,2.9944153E0,0E0,0E0,0E0,9.4283676E-1,0E0,3.410553E0,0E0,0E0,0E0,2.353231E0,0E0,2.659813E0,0E0,3.181636E0,3.242714E0,0E0,1.2786529E0,0E0,0E0,2.3449707E0,0E0,3.19458E0,0E0,2.9202108E0,0E0,1.8288269E0,0E0,2.4219437E0,0E0,1.4617157E0,3.727703E-1,0E0,0E0,2.9018707E0,0E0,1.0582652E0,0E0,8.335924E-1,0E0,4.000863E0,1.0064633E0,3.2458038E0,0E0,0E0,0E0,0E0,0E0,0E0,0E0,0E0,0E0,0E0,0E0,0E0,0E0,0E0,0E0,0E0,0E0,0E0,0E0,0E0,0E0,0E0,0E0,0E0,0E0,0E0,0E0,0E0,0E0],"parents":[2147483647,0,0,1,1,2,2,3,3,4,4,5,5,6,6,7,7,8,8,9,9,10,10,11,11,12,12,13,13,14,14,15,15,16,16,17,17,18,18,19,19,20,20,21,21,22,22,23,23,24,24,25,25,26,26,27,27,28,28,29,29,31,31,32,32,33,33,34,34,35,35,36,36,39,39,40,40,41,41,42,42,45,45,47,47,48,48,49,49,51,51,53,53,55,55,56,56,57,57,58,58,61,61,62,62,63,63,64,64,65,65,66,66,67,67,68,68,69,69,70,70,71,71,73,73,74,74,75,75,76,76,77,77,81,81,83,83,85,85,87,87,89,89,93,93,94,94,95,95,99,99,101,101,102,102,103,103,104,104,105,105,107,107,109,109,110,110,111,111,113,113,114,114,115,115,116,116,117,117,118,118,119,119,123,123,124,124,125,125,126,126,127,127,128,128,129,129,130,130,135,135,136,136,139,139,140,140,143,143,145,145,146,146,151,151,153,153,154,154,155,155,156,156,159,159,163,163,164,164,167,167,168,168,169,169,171,171,172,172,173,173,174,174,175,175,183,183,184,184,185,185,187,187,188,188,189,189,191,191,192,192,194,194,195,195,196,196,197,197,198,198,199,199,200,200,203,203,204,204,207,207,209,209,210,210,213,213,215,215,216,216,217,217,218,218,219,219,221,221,223,223,225,225,227,227,229,229,233,233,235,235,237,237,239,239,244,244,245,245,247,247,251,251,252,252,253,253,255,255,257,257,259,259,264,264,267,267,271,271,276,276,281,281,282,282,283,283,284,284,285,285,287,287,289,289,291,291,295,295,301,301,305,305,306,306,307,307,309,309,317,317,323,323,329,329,333,333,337,337,338,338,341,341,342,342,343,343,344,344,349,349,351,351,352,352,354,354,357,357,359,359,360,360,361,361,362,362,365,365,369,369,371,371,372,372,373,373,374,374,377,377,379,379,381,381,382,382,384,384,385,385,386,386,389,389,391,391,392,392,393,393,399,399,403,403,407,407,409,409,410,410,415,415,419,419,420,420,423,423,424,424,425,425,429,429,430,430,433,433,435,435,436,436,441,441,443,443,447,447,451,451,453,453,457,457,459,459,461,461,462,462,464,464,467,467,469,469,471,471,473,473,475,475,477,477,478,478,481,481,483,483,485,485,487,487,488,488,489,489],"right_children":[2,4,6,8,10,12,14,16,18,20,22,24,26,28,30,32,34,36,38,40,42,44,46,48,50,52,54,56,58,60,-1,62,64,66,68,70,72,-1,-1,74,76,78,80,-1,-1,82,-1,84,86,88,-1,90,-1,92,-1,94,96,98,100,-1,-1,102,104,106,108,110,112,114,116,118,120,122,-1,124,126,128,130,132,-1,-1,-1,134,-1,136,-1,138,-1,140,-1,142,-1,-1,-1,144,146,148,-1,-1,-1,150,-1,152,154,156,158,160,-1,162,-1,164,166,168,-1,170,172,174,176,178,180,182,-1,-1,-1,184,186,188,190,192,194,196,198,-1,-1,-1,-1,200,202,-1,-1,204,206,-1,-1,208,-1,210,212,-1,-1,-1,-1,214,-1,216,218,220,222,-1,-1,224,-1,-1,-1,226,228,-1,-1,230,232,234,-1,236,238,240,242,244,-1,-1,-1,-1,-1,-1,-1,246,248,250,-1,252,254,256,-1,258,260,-1,262,264,266,268,270,272,274,-1,-1,276,278,-1,-1,280,-1,282,284,-1,-1,286,-1,288,290,292,294,296,-1,298,-1,300,-1,302,-1,304,-1,306,-1,-1,-1,308,-1,310,-1,312,-1,314,-1,-1,-1,-1,316,318,-1,320,-1,-1,-1,322,324,326,-1,328,-1,330,-1,332,-1,-1,-1,-1,334,-1,-1,336,-1,-1,-1,338,-1,-1,-1,-1,340,-1,-1,-1,-1,342,344,346,348,350,-1,352,-1,354,-1,356,-1,-1,-1,358,-1,-1,-1,-1,-1,360,-1,-1,-1,362,364,366,-1,368,-1,-1,-1,-1,-1,-1,-1,370,-1,-1,-1,-1,-1,372,-1,-1,-1,-1,-1,374,-1,-1,-1,376,-1,-1,-1,378,380,-1,-1,382,384,386,388,-1,-1,-1,-1,390,-1,392,394,-1,396,-1,-1,398,-1,400,402,404,406,-1,-1,408,-1,-1,-1,410,-1,412,414,416,418,-1,-1,420,-1,422,-1,424,426,-1,428,430,432,-1,-1,434,-1,436,438,440,-1,-1,-1,-1,-1,442,-1,-1,-1,444,-1,-1,-1,446,-1,448,450,-1,-1,-1,-1,452,-1,-1,-1,454,456,-1,-1,458,460,462,-1,-1,-1,464,466,-1,-1,468,-1,470,472,-1,-1,-1,-1,474,-1,476,-1,-1,-1,478,-1,-1,-1,480,-1,482,-1,-1,-1,484,-1,486,-1,488,490,-1,492,-1,-1,494,-1,496,-1,498,-1,500,-1,502,-1,504,506,-1,-1,508,-1,510,-1,512,-1,514,516,518,-1,-1,-1,-1,-1,-1,-1,-1,-1,-1,-1,-1,-1,-1,-1,-1,-1,-1,-1,-1,-1,-1,-1,-1,-1,-1,-1,-1,-1],"split_conditions":[8.9587975E-1,8.9587975E-1,1.2424533E0,3.465736E-1,1.8688347E0,8.9587975E-1,3.465736E-1,3.465736E-1,8.9587975E-1,8.9587975E-1,3.465736E-1,1.2424533E0,3.465736E-1,2.441401E0,1.4978662E0,8.9587975E-1,3.465736E-1,2.0126758E0,3.465736E-1,3.465736E-1,3.465736E-1,3.465736E-1,8.9587975E-1,3.465736E-1,2.441401E0,3.465736E-1,3.465736E-1,3.465736E-1,3.465736E-1,1.7005987E0,-0E0,3.465736E-1,3.465736E-1,1.2424533E0,1.2424533E0,1.2424533E0,1.1512926E0,1.3782243E-1,-1.7214214E-2,8.9587975E-1,3.465736E-1,3.465736E-1,3.465736E-1,1.2180131E-1,-0E0,2.0126758E0,7.167359E-2,2.0126758E0,1.7005987E0,8.9587975E-1,-1.1887055E-1,3.465736E-1,1.1624092E-1,3.465736E-1,-0E0,3.465736E-1,2.0126758E0,1.7005987E0,3.5487742E0,1.4543812E-1,-0E0,3.465736E-1,3.465736E-1,3.2384863E0,3.465736E-1,8.9587975E-1,1.7005987E0,3.465736E-1,3.465736E-1,3.465736E-1,3.465736E-1,8.9587975E-1,-0E0,3.465736E-1,2.3502402E0,8.9587975E-1,2.2499049E0,3.465736E-1,-2.0989144E-2,-8.5557766E-2,1.8713865E-2,1.8444397E0,-0E0,3.465736E-1,3.0023223E-2,5.4930615E-1,-3.7609342E-2,1.4978662E0,-8.073489E-2,3.465736E-1,-3.613494E-2,-1.0125178E-1,-0E0,2.3502402E0,1.2424533E0,3.465736E-1,-0E0,-1.4932983E-1,-0E0,3.465736E-1,4.0000003E-2,2.943052E0,8.9587975E-1,3.465736E-1,3.465736E-1,1.4978662E0,3.1673614E-2,1.2424533E0,-6.30032E-2,3.465736E-1,8.9587975E-1,8.9587975E-1,5.109941E-2,3.465736E-1,3.465736E-1,3.465736E-1,1.4978662E0,3.465736E-1,1.2424533E0,3.465736E-1,-0E0,-1.4023761E-1,-0E0,3.465736E-1,1.2424533E0,2.0126758E0,3.465736E-1,8.9587975E-1,3.465736E-1,1.4978662E0,1.2424533E0,1.2619148E-1,-0E0,-0E0,-9.6376374E-2,1.2424533E0,2.2499049E0,9.512287E-2,-0E0,3.465736E-1,1.0397208E0,9.125079E-2,-2.110373E-2,3.1132684E0,-0E0,2.2499049E0,1.7005987E0,1.3892359E-1,-0E0,-8.515113E-2,-0E0,3.3773022E0,-0E0,8.9587975E-1,3.465736E-1,3.465736E-1,3.465736E-1,6.2304765E-2,-1.5578945E-2,8.9587975E-1,-0E0,7.9700015E-2,-0E0,8.9587975E-1,1.2424533E0,-4.8236486E-2,6.6420674E-2,3.465736E-1,1.2424533E0,3.465736E-1,1.702572E-2,3.465736E-1,3.465736E-1,3.465736E-1,8.9587975E-1,3.465736E-1,-1.9771226E-2,6.538289E-2,-1.7114496E-2,-1.0393512E-1,-0E0,1.099957E-1,-0E0,1.7005987E0,3.465736E-1,8.9587975E-1,-6.092706E-2,3.465736E-1,1.4978662E0,1.7005987E0,-0E0,8.9587975E-1,3.465736E-1,9.569636E-2,1.2424533E0,3.465736E-1,3.465736E-1,8.9587975E-1,3.465736E-1,8.9587975E-1,1.8688347E0,4.3276507E-2,-1.7650565E-2,8.9587975E-1,1.0397208E0,1.263335E-1,-0E0,1.2424533E0,-0E0,1.2424533E0,3.465736E-1,-0E0,1.3185489E-1,1.8688347E0,-0E0,3.0900083E0,8.9587975E-1,1.0397208E0,3.465736E-1,1.7005987E0,-0E0,1.2424533E0,-7.090516E-2,1.8688347E0,-0E0,1.4978662E0,-0E0,3.465736E-1,6.512857E-2,3.465736E-1,2.8430521E-2,6.1137695E-2,-2.3120722E-2,2.3502402E0,-0E0,3.465736E-1,-6.30032E-2,3.465736E-1,-0E0,3.465736E-1,8.557394E-2,-1.1507391E-1,-0E0,-0E0,3.465736E-1,1.4978662E0,1.716983E-2,2.2499049E0,5.003904E-2,-1.1849623E-2,8.6662404E-2,1.0397208E0,1.8688347E0,3.465736E-1,-7.2281115E-2,3.465736E-1,-0E0,1.4978662E0,1.6427068E-2,3.465736E-1,-8.778696E-2,4.090642E-4,-9.1486715E-2,-1.229345E-1,2.0126758E0,-0E0,6.6677235E-2,1.0397208E0,-1.0125108E-1,1.3258785E-1,-0E0,2.3502402E0,2.2440676E-2,-0E0,2.7308801E-2,-0E0,2.5964785E0,-7.826777E-2,-0E0,-1.4019318E-1,-0E0,3.465736E-1,2.6020033E0,8.9587975E-1,3.465736E-1,1.8688347E0,-0E0,1.2424533E0,-0E0,1.2424533E0,3.880236E-2,8.9587975E-1,-5.7299413E-2,-9.394451E-2,-0E0,2.138333E0,-0E0,-0E0,7.9863325E-2,-1.4278507E-1,-0E0,1.2424533E0,-0E0,-7.565334E-2,-0E0,8.9587975E-1,3.465736E-1,8.9587975E-1,-0E0,3.465736E-1,-0E0,-1.2340361E-1,-0E0,-2.0907005E-2,-0E0,1.3200784E-1,-0E0,3.465736E-1,-0E0,-7.2281115E-2,-0E0,-3.298845E-2,7.14693E-2,3.465736E-1,7.2723986E-3,1.3278602E-1,-0E0,-1.5828238E-1,-0E0,3.465736E-1,-0E0,1.1586016E-1,-1.3477461E-2,3.465736E-1,-7.330597E-2,8.944767E-2,-3.3944137E-2,2.0126758E0,3.465736E-1,7.297677E-2,-0E0,3.465736E-1,3.465736E-1,3.465736E-1,5.4930615E-1,1.3776185E-1,-0E0,-2.1092942E-2,-0E0,1.4978662E0,-0E0,1.4978662E0,3.465736E-1,-0E0,2.7403195E0,-5.604082E-3,8.361535E-2,3.465736E-1,-0E0,2.138333E0,3.465736E-1,3.465736E-1,2.6020033E0,5.2681502E-2,-7.098017E-2,3.465736E-1,-0E0,1.2340363E-1,-0E0,3.465736E-1,-0E0,3.465736E-1,3.465736E-1,3.465736E-1,1.2424533E0,7.416705E-2,-0E0,1.2424533E0,-0E0,3.465736E-1,-6.0316246E-2,1.2424533E0,3.465736E-1,-1.4255913E-1,3.465736E-1,3.465736E-1,3.465736E-1,-8.735503E-2,-0E0,1.7005987E0,-0E0,1.2424533E0,3.465736E-1,8.9587975E-1,3.2213997E-2,-1.0694628E-1,-0E0,-1.5998672E-1,-7.5628497E-3,2.441401E0,-0E0,-5.8272805E-2,2.7182147E-2,3.465736E-1,-0E0,2.718215E-2,-3.0836299E-2,3.465736E-1,-0E0,2.8888261E0,8.9587975E-1,-1.2881245E-1,-0E0,2.87673E-2,-1.3161375E-2,3.465736E-1,-0E0,4.4290754E-3,-1.7855179E-2,1.4978662E0,5.4930615E-1,-0E0,6.825609E-2,3.465736E-1,1.2424533E0,1.2424533E0,6.642262E-2,2.255323E-2,-1.9441968E-2,3.465736E-1,3.465736E-1,1.3654867E-1,-0E0,1.2424533E0,-0E0,1.2424533E0,3.465736E-1,-3.6298227E-2,2.2322716E-2,-0E0,-5.748111E-2,1.7005987E0,-0E0,1.2424533E0,-0E0,-1.5693645E-1,-0E0,1.7005987E0,-0E0,-6.879329E-2,2.4017777E-2,3.465736E-1,-0E0,8.9587975E-1,-0E0,2.3739278E-2,-3.3321377E-2,1.8688347E0,2.9405003E-2,3.465736E-1,-6.198513E-2,3.465736E-1,3.465736E-1,-0E0,3.465736E-1,8.293406E-2,-0E0,1.4978662E0,-0E0,2.138333E0,-0E0,2.441401E0,2.1114277E-2,1.8688347E0,-0E0,8.9587975E-1,-0E0,8.9587975E-1,1.9356005E0,-1.6063441E-1,-0E0,1.4978662E0,-0E0,3.465736E-1,1.9090164E-2,3.465736E-1,-0E0,1.7005987E0,2.441401E0,1.2424533E0,-0E0,-1.126613E-1,-0E0,-1.6636571E-1,-0E0,-1.545966E-1,-1.8886395E-2,-1.1086122E-1,-0E0,-1.5252857E-1,-0E0,-1.325274E-1,-0E0,-1.4198844E-1,-0E0,-3.8628604E-2,-0E0,-1.2774538E-1,-0E0,-8.968545E-2,-0E0,3.9290328E-2,1.4091162E-1,-9.126116E-2,3.3929374E-2,7.517095E-2,-0E0,-1.16811454E-1,-0E0],"split_indices":[39,222,39,248,222,223,248,322,322,313,350,222,206,307,14,166,120,62,306,322,181,58,97,248,271,97,179,314,207,110,0,313,24,280,322,76,316,0,0,277,2,53,40,0,0,81,0,28,88,205,0,263,0,121,0,42,300,81,299,0,0,124,48,62,192,30,192,90,280,268,271,304,0,287,62,109,299,335,0,0,0,76,0,290,0,306,0,222,0,165,0,0,0,90,186,6,0,0,0,205,0,326,170,40,297,192,0,268,0,35,1,128,0,160,279,334,300,90,280,190,0,0,0,44,334,280,323,150,300,277,222,0,0,0,0,138,299,0,0,307,129,0,0,62,0,127,277,0,0,0,0,81,0,17,63,39,84,0,0,220,0,0,0,314,322,0,0,195,128,162,0,101,309,63,325,81,0,0,0,0,0,0,0,79,55,268,0,299,307,222,0,296,350,0,110,38,55,306,316,202,299,0,0,62,271,0,0,101,0,222,86,0,0,5,0,108,19,60,40,308,0,268,0,135,0,345,0,222,0,327,0,0,0,81,0,260,0,251,0,124,0,0,0,0,132,297,0,62,0,0,0,90,300,177,0,205,0,165,0,81,0,0,0,0,62,0,0,277,0,0,0,325,0,0,0,0,62,0,0,0,0,263,124,90,81,23,0,22,0,16,0,124,0,0,0,63,0,0,0,0,0,204,0,0,0,166,356,218,0,153,0,0,0,0,0,0,0,119,0,0,0,0,0,42,0,0,0,0,0,161,0,0,0,81,0,0,0,322,356,0,0,218,310,300,90,0,0,0,0,27,0,218,316,0,86,0,0,274,0,289,51,155,299,0,0,214,0,0,0,69,0,225,218,163,268,0,0,79,0,36,0,42,128,0,20,41,84,0,0,147,0,28,42,63,0,0,0,0,0,317,0,0,0,196,0,0,0,234,0,81,125,0,0,0,0,237,0,0,0,272,81,0,0,30,279,127,0,0,0,280,67,0,0,236,0,196,161,0,0,0,0,18,0,138,0,0,0,165,0,0,0,26,0,342,0,0,0,325,0,180,0,166,331,0,350,0,0,210,0,289,0,90,0,205,0,32,0,345,76,0,0,187,0,132,0,304,0,125,299,135,0,0,0,0,0,0,0,0,0,0,0,0,0,0,0,0,0,0,0,0,0,0,0,0,0,0,0,0,0],"split_type":[0,0,0,0,0,0,0,0,0,0,0,0,0,0,0,0,0,0,0,0,0,0,0,0,0,0,0,0,0,0,0,0,0,0,0,0,0,0,0,0,0,0,0,0,0,0,0,0,0,0,0,0,0,0,0,0,0,0,0,0,0,0,0,0,0,0,0,0,0,0,0,0,0,0,0,0,0,0,0,0,0,0,0,0,0,0,0,0,0,0,0,0,0,0,0,0,0,0,0,0,0,0,0,0,0,0,0,0,0,0,0,0,0,0,0,0,0,0,0,0,0,0,0,0,0,0,0,0,0,0,0,0,0,0,0,0,0,0,0,0,0,0,0,0,0,0,0,0,0,0,0,0,0,0,0,0,0,0,0,0,0,0,0,0,0,0,0,0,0,0,0,0,0,0,0,0,0,0,0,0,0,0,0,0,0,0,0,0,0,0,0,0,0,0,0,0,0,0,0,0,0,0,0,0,0,0,0,0,0,0,0,0,0,0,0,0,0,0,0,0,0,0,0,0,0,0,0,0,0,0,0,0,0,0,0,0,0,0,0,0,0,0,0,0,0,0,0,0,0,0,0,0,0,0,0,0,0,0,0,0,0,0,0,0,0,0,0,0,0,0,0,0,0,0,0,0,0,0,0,0,0,0,0,0,0,0,0,0,0,0,0,0,0,0,0,0,0,0,0,0,0,0,0,0,0,0,0,0,0,0,0,0,0,0,0,0,0,0,0,0,0,0,0,0,0,0,0,0,0,0,0,0,0,0,0,0,0,0,0,0,0,0,0,0,0,0,0,0,0,0,0,0,0,0,0,0,0,0,0,0,0,0,0,0,0,0,0,0,0,0,0,0,0,0,0,0,0,0,0,0,0,0,0,0,0,0,0,0,0,0,0,0,0,0,0,0,0,0,0,0,0,0,0,0,0,0,0,0,0,0,0,0,0,0,0,0,0,0,0,0,0,0,0,0,0,0,0,0,0,0,0,0,0,0,0,0,0,0,0,0,0,0,0,0,0,0,0,0,0,0,0,0,0,0,0,0,0,0,0,0,0,0,0,0,0,0,0,0,0,0,0,0,0,0,0,0,0,0,0,0,0,0,0,0,0,0,0,0,0,0,0,0,0,0,0,0,0,0,0,0,0,0,0,0,0,0,0,0,0,0,0,0,0,0,0,0,0,0,0],"sum_hessian":[2.954117E3,2.6198408E3,3.342761E2,2.3886685E3,2.3117226E2,1.8448082E2,1.4979527E2,2.3590088E3,2.9659788E1,2.1695836E2,1.4213902E1,1.695124E2,1.4968413E1,1.3586624E2,1.3929032E1,2.0036423E3,3.5536642E2,2.3186157E1,6.4736304E0,2.057387E2,1.1219667E1,7.2241445E0,6.9897575E0,1.5132138E2,1.8191021E1,9.731169E0,5.2372446E0,1.2068523E2,1.5181016E1,1.2929032E1,1E0,1.975506E3,2.8136333E1,2.9857224E2,5.679418E1,1.5455636E1,7.7305217E0,4.7263064E0,1.7473238E0,1.4246645E2,6.327225E1,7.7248783E0,3.4947891E0,6.2241445E0,1E0,4.7430825E0,2.2466748E0,1.4657698E2,4.7444086E0,1.520018E1,2.9908402E0,5.4927697E0,4.238399E0,3.4914603E0,1.7457843E0,1.1022869E2,1.0456536E1,1.0691112E1,4.489905E0,1.1179032E1,1.75E0,1.9431735E3,3.233252E1,2.2642307E1,5.4940257E0,2.234818E2,7.509045E1,4.0577953E1,1.6216227E1,1.0470993E1,4.984643E0,5.9833965E0,1.7471248E0,1.0709217E2,3.5374268E1,4.159774E1,2.1674507E1,6.475033E0,1.2498457E0,1.7467897E0,1.7479994E0,3.245074E0,1.4980087E0,1.44581E2,1.9959774E0,3.2450085E0,1.4994001E0,1.2706393E1,2.4937873E0,3.9952104E0,1.4975591E0,2.2442124E0,1.2472479E0,1.0956312E1,9.927238E1,8.2085495E0,2.2479873E0,9.197842E0,1.4932699E0,2.9899049E0,1.5E0,1.1807429E3,7.6243054E2,2.8597103E1,3.735415E0,2.0642931E1,1.9993753E0,4.245414E0,1.2486122E0,2.204886E2,2.9931953E0,7.334174E1,1.748699E0,2.7860363E1,1.2717593E1,8.232264E0,7.9839625E0,5.2352324E0,5.2357607E0,3.73748E0,1.2471628E0,4.7356224E0,1.2477741E0,1.0161055E2,5.481622E0,2.2917648E1,1.2456619E1,3.4372337E1,7.2254057E0,9.957491E0,1.1717016E1,5.226975E0,1.2480576E0,1.2477565E0,1.9973176E0,1.4058371E2,3.997292E0,1.9962562E0,1.2487521E0,7.7213373E0,4.9850554E0,2.746442E0,1.2487683E0,9.456312E0,1.5E0,9.379398E1,5.4783897E0,7.2085495E0,1E0,1.7432699E0,1.246635E0,1.1795009E3,1.2421144E0,7.5224316E2,1.0187421E1,2.3363224E1,5.2338777E0,2.4911284E0,1.2442865E0,1.9642931E1,1E0,2.4954138E0,1.75E0,2.159954E2,4.493202E0,1.743226E0,1.2499691E0,6.9611435E1,3.73031E0,2.6110506E1,1.7498554E0,7.2331023E0,5.4844904E0,4.2403607E0,3.991903E0,6.7374263E0,1.2465361E0,3.4913316E0,1.7439007E0,3.4868886E0,1.7488723E0,2.4933581E0,1.2441218E0,9.662818E1,4.9823694E0,4.2359643E0,1.2456582E0,1.668659E1,6.2310586E0,1.0713149E1,1.7434704E0,2.7395325E1,6.977011E0,2.7427292E0,4.4826765E0,7.467609E0,2.489882E0,5.485587E0,6.231429E0,1.3809421E2,2.4894967E0,2.2479713E0,1.7493207E0,3.9848762E0,3.7364612E0,3.4884758E0,1.4965796E0,8.456312E0,1E0,8.581596E1,7.978023E0,1.25E0,4.2283897E0,1.1782548E3,1.2460697E0,7.457628E2,6.4803433E0,5.7168255E0,4.4705954E0,2.1871819E1,1.491406E0,2.9929943E0,2.2408834E0,1.8392931E1,1.25E0,2.1474988E2,1.2455202E0,3.2435622E0,1.2496399E0,6.836768E1,1.2437494E0,1.7422562E0,1.9880539E0,2.486443E1,1.2460772E0,5.9844904E0,1.2486122E0,4.4844904E0,1E0,2.4945607E0,1.7458E0,2.7431953E0,1.2487078E0,1.7476128E0,4.9898133E0,9.5381805E1,1.2463778E0,2.7391453E0,2.2432241E0,1.7429713E0,2.4929926E0,3.4879827E0,1.3198607E1,4.7375712E0,1.4934871E0,9.465828E0,1.2473214E0,2.5651072E1,1.7442541E0,4.2345915E0,2.7424195E0,1.49399E0,2.9886866E0,3.4827724E0,3.9848366E0,1.2436005E0,1.2462816E0,3.2417796E0,2.2438076E0,4.983631E0,1.2477982E0,1.3684648E2,1.2477252E0,1.2441372E0,1.2453595E0,1.245866E0,2.7390103E0,2.4896858E0,1.2467755E0,7.4563117E0,1E0,6.786976E1,1.7946203E1,5.483043E0,2.49498E0,1.1770145E3,1.2401743E0,7.43523E2,2.2397923E0,4.980493E0,1.49985E0,4.4761925E0,1.2406331E0,3.2266471E0,1.2439483E0,2.0377455E1,1.4943647E0,1.4957922E0,1.4972022E0,1.7392931E1,1E0,2.1325595E2,1.493927E0,1.4969199E0,1.7466424E0,6.4635826E1,3.7318602E0,2.3616625E1,1.2478044E0,4.7344904E0,1.25E0,3.4844906E0,1E0,1.2477418E0,1.2468189E0,3.742033E0,1.2477803E0,9.338963E1,1.9921724E0,1.4934871E0,1.2456582E0,1.494034E0,1.9939487E0,1.120552E1,1.9930875E0,3.49074E0,1.2468312E0,8.21831E0,1.2475166E0,2.3160355E1,2.490716E0,2.4907975E0,1.743794E0,2.4907718E0,1.4940649E0,1.7470596E0,1.49472E0,1.328581E2,3.9883912E0,1.4931237E0,1.2458866E0,6.0635075E1,7.2346864E0,1.4704218E1,3.241985E0,4.2387156E0,1.2443278E0,1.2483485E0,1.2466316E0,1.1757744E3,1.2401743E0,7.398017E2,3.7212934E0,1.2450202E0,3.7354732E0,2.2361746E0,2.2400181E0,1.913136E1,1.2460955E0,2.1076793E2,2.488023E0,6.1899296E1,2.7365298E0,2.24082E0,1.4910405E0,2.2116625E1,1.5E0,3.4844904E0,1.25E0,9.139556E1,1.9940693E0,8.21834E0,2.9871798E0,2.0419008E1,2.7413473E0,1.2445726E0,1.246199E0,1.3161551E2,1.2425781E0,2.7432587E0,1.2451324E0,2.7447268E1,3.3187805E1,4.7407823E0,2.493904E0,8.977935E0,5.726283E0,1.7475042E0,1.4944808E0,1.1745342E3,1.2401743E0,7.3705566E2,2.7460463E0,2.4811192E0,1.2401743E0,2.4902968E0,1.2451763E0,1.7393726E1,1.7376319E0,2.0877988E2,1.9880539E0,1.2425337E0,1.2454894E0,6.065676E1,1.2425337E0,1.2454894E0,1.4910405E0,2.0376041E1,1.7405835E0,8.741021E1,3.9853501E0,6.9730816E0,1.2452586E0,1.2446426E0,1.742537E0,1.9174435E1,1.2445726E0,1.4946036E0,1.2467436E0,1.288758E2,2.7397177E0,1.4948193E0,1.2484394E0,1.1727938E1,1.571933E1,3.044234E1,2.745465E0,1.2470798E0,1.2468241E0,5.48998E0,3.4879541E0,4.4811788E0,1.2451048E0,1.1732941E3,1.2401743E0,7.206132E2,1.6442469E1,1.497521E0,1.2485251E0,1.2401743E0,1.240945E0,2.0704033E2,1.7395471E0,5.866435E1,1.992413E0,1.8880241E1,1.4957997E0,8.56661E1,1.744114E0,2.2408085E0,1.7445418E0,1.768002E1,1.4944165E0,1.2763031E2,1.2454871E0,1.2481169E0,1.4916009E0,9.232112E0,2.4958258E0,1.2974981E1,2.7443485E0,1.1975969E1,1.8466372E1,1.4971524E0,3.992828E0,1.7414573E0,1.7464969E0,1.1720538E3,1.2401743E0,7.1887695E2,1.736244E0,1.51927805E1,1.2496877E0,2.057978E2,1.2425337E0,5.717109E1,1.4932569E0,8.266982E1,2.9962738E0,1.61853E1,1.4947186E0,1.2638563E2,1.2446803E0,7.98409E0,1.2480218E0,1.1477605E1,1.497377E0,7.7329364E0,4.2430334E0,1.696944E1,1.4969313E0,2.4964864E0,1.4963415E0,1.1708118E3,1.2421144E0,7.151546E2,3.7223318E0,1.269952E1,2.4932606E0,2.0455377E2,1.2440269E0,5.4683037E1,2.4880538E0,8.14247E1,1.245128E0,1.4981773E0,1.4980963E0,1.24893326E2,1.4923003E0,6.486948E0,1.4971418E0,6.9865785E0,4.491026E0,5.7373676E0,1.995569E0,2.9958563E0,1.2471769E0,1.5223492E1,1.7459483E0],"tree_param":{"num_deleted":"0","num_feature":"357","num_nodes":"519","size_leaf_vector":"0"}},{"base_weights":[-1.19664E0,-1.297198E0,-4.1172862E-1,-1.3651658E0,-5.950554E-1,-7.460691E-1,-0E0,-1.3822681E0,-0E0,-6.7122453E-1,4.664434E-1,-8.3225316E-1,1.5353028E-1,-1.1320634E-1,1.0580792E0,-1.4333918E0,-1.0195134E0,-3.4928486E-1,6.009897E-1,-7.297971E-1,2.901414E-1,7.243319E-1,-1.3337237E-1,-9.105222E-1,-1.1811666E-1,6.057475E-1,-4.868765E-1,-3.0536787E-4,-8.963993E-1,1.207834E0,-0E0,-1.465197E0,-1.1746277E0,-1.1422249E0,-3.414684E-1,-5.666022E-1,4.4703007E-1,9.248904E-1,-6.1143184E-1,-7.663316E-1,4.4789702E-1,5.632056E-1,-2.6330248E-1,9.281791E-1,-1.5159966E-2,1.7320102E-1,-6.5279615E-1,-9.3687683E-1,4.903979E-1,7.029659E-2,-1.1070262E0,8.104406E-1,-0E0,-7.8058106E-1,-0E0,-1.7389952E-1,4.887986E-1,-1.2470435E0,-2.5785165E-2,1.3026181E0,-0E0,-1.4770572E0,-8.152696E-1,-1.1971594E0,2.5381646E-1,-1.2719358E0,-7.93105E-1,-7.578218E-1,8.808806E-2,-7.813786E-1,2.3987122E-1,8.2956356E-1,-0E0,1.2179158E0,-0E0,-8.196336E-1,4.1833606E-2,8.7604845E-1,-2.073719E-1,8.231847E-1,-2.1798746E-1,-5.9903586E-1,-0E0,1.1164032E0,-0E0,-1.0101942E0,-2.3922408E-1,3.4827942E-1,-7.522508E-1,9.803084E-1,-0E0,-0E0,-9.6882164E-1,-3.119664E-1,4.9029824E-1,6.036365E-1,-5.2838457E-1,-1.3742676E0,-0E0,5.2156764E-1,-6.7882484E-1,1.4242594E0,-0E0,-1.4793154E0,-0E0,-1.0685115E0,-1.1213627E-1,-1.2867483E0,-7.108643E-1,7.3931164E-1,-0E0,-1.3026571E0,-0E0,-8.565065E-1,1.23696715E-1,-9.137425E-1,3.8038778E-1,-3.9539033E-1,6.154935E-1,-1.1253337E0,-0E0,5.853932E-1,-0E0,1.3761718E0,-0E0,-8.6796093E-1,-0E0,4.219241E-1,-7.4114823E-1,1.0511944E0,-0E0,1.0153638E0,-0E0,1.3232888E0,-0E0,-1.0440078E0,-0E0,-5.086191E-1,4.4697118E-1,7.398995E-1,-7.8062765E-2,-0E0,1.1100069E0,-3.936325E-1,7.597832E-1,-0E0,9.4620574E-1,7.5130415E-1,-9.369506E-2,-0E0,-8.589917E-1,-1.4842839E0,-4.4784185E-1,-1.24953E0,-0E0,-4.3535206E-1,6.348593E-1,-1.3203337E0,-1.8904495E-1,-9.8468846E-1,1.1019169E-1,-1.3163401E0,-0E0,-3.8042554E-1,4.4989204E-1,-9.573842E-1,-1.44952E-1,8.565457E-1,-1.9520377E-1,-1.0490574E0,1.24553956E-1,8.076546E-2,-1.1354572E0,8.402613E-1,-1.1976024E-1,-1.2551528E0,-0E0,1.6106895E-1,-5.639517E-1,-1.0196255E0,-5.427761E-1,-2.7859542E-1,7.786756E-1,7.895063E-1,-0E0,1.1768713E0,-0E0,-1.1383766E0,-4.2126262E-1,4.220642E-1,-2.269535E-1,-9.7133434E-1,6.0272866E-1,1.0623157E0,-1.2805331E-1,9.509311E-1,-0E0,3.3785826E-1,-7.870537E-1,1.2797382E0,-0E0,-1.2001888E0,-2.56734E-1,1.1469775E0,-0E0,-3.6143252E-1,7.2493887E-1,1.219619E0,-0E0,8.636956E-1,-2.949762E-2,1.6626488E-1,-5.2001476E-1,-1.4867234E0,-0E0,-8.044077E-1,1.2218515E-1,-1.3599887E0,-0E0,4.6316376E-1,-4.8972166E-1,-9.717939E-1,-0E0,-1.3371828E0,-0E0,3.0818266E-1,-1.0706109E0,-1.1095424E0,4.6809462E-1,5.5533755E-1,-1.7085978E-1,-1.3297321E0,-0E0,-1.0041486E0,8.820163E-2,-5.1586384E-1,3.743759E-1,-1.1622344E0,-0E0,-2.1717866E-1,4.933587E-1,2.3388749E-2,1.3690033E0,-0E0,4.9008283E-1,-1.0642036E0,2.7938986E-1,-1.4078237E-1,-8.928808E-1,-6.162739E-1,4.0462384E-1,1.1474085E0,-0E0,-8.3228016E-1,5.5650127E-1,-1.172906E0,-0E0,-6.012408E-1,5.685105E-1,-1.1528977E0,-0E0,9.5380104E-1,-0E0,1.2279199E0,-0E0,-0E0,6.937514E-1,-1.3477596E0,-0E0,-1.0949074E-1,-9.4606376E-1,-1.1198822E0,2.6864856E-1,1.0059333E0,-0E0,-1.4889753E0,-0E0,1.6821055E-1,-2.0363623E-1,-1.132205E0,-0E0,4.9638122E-1,-0E0,-1.4328706E0,-0E0,-0E0,-6.4782953E-1,2.9193637E-1,-4.342534E-1,-1.3513672E0,-0E0,8.134681E-1,-3.8965672E-2,-1.2183383E0,1.5269516E-1,8.423094E-1,-0E0,-5.5302083E-1,1.01822235E-1,-1.348156E0,-0E0,-1.056972E0,-0E0,-8.4880596E-1,1.472615E-1,9.086743E-1,-0E0,-1.2681217E0,-0E0,-5.525354E-1,-0E0,8.068167E-1,-0E0,6.382912E-1,-3.8244498E-1,-1.1031007E0,-0E0,8.8060415E-1,-1.3530043E-1,-4.136064E-1,2.7492622E-1,-1.0650718E0,-0E0,-9.3364406E-1,-0E0,-1.2122922E0,-0E0,6.597296E-1,-3.4877002E-1,-8.042787E-1,3.7193942E-1,-1.3042475E0,-0E0,-3.077485E-1,3.936929E-1,3.6867803E-1,-1.3292463E0,6.133903E-1,-0E0,1.1005429E0,-0E0,-7.080301E-1,5.432851E-1,-1.4936538E0,-5.171401E-1,-2.6988375E-1,2.4509397E-1,5.2535254E-1,-0E0,-1.3724402E0,-0E0,-1.3300911E0,4.8634052E-2,-0E0,-7.559546E-1,-1.3683771E0,-7.7895924E-2,-1.1047615E0,-0E0,-2.5160733E-1,3.3426213E-1,-1.0184737E0,-0E0,-1.3401084E0,-0E0,-1.1285083E0,6.060946E-2,-5.3657085E-1,3.3726904E-1,-5.717708E-1,6.841193E-1,-0E0,9.8673934E-1,-1.2252964E0,-0E0,7.6876175E-1,-5.4333633E-1,-1.1452546E0,-0E0,-1.2403166E0,-0E0,-4.421892E-1,1.9591004E-1,-9.685694E-1,9.7386174E-2,-1.0239872E-1,-9.2602974E-1,6.4213955E-1,-7.0060515E-1,-1.4887958E0,-0E0,1.1935935E0,-0E0,-1.4960225E0,-0E0,-1.131508E0,6.9698787E-1,-1.3896124E0,-0E0,-8.1275636E-1,8.193608E-1,-1.4162117E0,-0E0,-1.4239317E0,-6.9144523E-1,1.1772266E-1,-6.8493503E-1,-1.1425849E0,-0E0,-1.4181398E0,-2.8399345E-2,-1.152415E0,-0E0,6.74262E-1,-0E0,-8.361832E-1,6.5786205E-2,3.813545E-1,-5.684062E-1,-1.3067088E0,-0E0,2.902401E-1,-5.647309E-1,-1.2619451E0,-0E0,-1.1074498E0,-0E0,-3.0354717E-1,6.865123E-1,-1.3174325E0,-0E0,1.0125186E0,-2.3979357E-1,1.2639486E0,-0E0,-1.4975187E0,-0E0,1.3475014E-1,-3.6713398E-1,-1.2843093E0,-0E0,-1.4035305E0,-0E0,-1.4837765E0,-0E0,-1.4384418E0,-1.02314195E-2,-1.0800315E0,-0E0,-1.1680577E0,-0E0,-1.180556E0,-0E0,-1.0174849E0,-0E0,5.745087E-1,-5.7792157E-2,8.192117E-1,-1.24493904E-1,-8.7511146E-1,-0E0,-1.3702822E0,-0E0,-0E0,6.488246E-1,-1.2937479E0,-5.6291174E-2,-1.3569677E0,-0E0,-7.3257476E-2,-8.464353E-1,8.898483E-1,-0E0,1.2686731E0,-0E0,-8.22264E-1,1.3384749E-1,-1.4993985E0,-0E0,-1.4171778E0,-0E0,-1.4589183E0,-2.2598962E-1,-1.2929138E0,-0E0,-3.2593057E-1,7.913602E-1,-1.2133018E0,-1.921277E-2,-1.2098892E0,-0E0,-1.1864996E0,-0E0,8.5116826E-2,-1.2708965E-1,-3.2929116E-1,-0E0,-1.4409728E0,-0E0,-1.3151612E0,-0E0,-6.0456616E-1,3.0893716E-1,4.168712E-1,-6.789136E-1,5.9917707E-2,-6.8331677E-1,-1.2728746E0,-0E0,1.4110334E0,-0E0,-1.50082E0,-0E0,-1.4317461E0,-0E0,-1.4691244E0,-0E0,-5.869162E-1,-0E0,-0E0,-6.217763E-1,-1.2419118E0,-0E0,2.2995408E-1,-6.4213955E-1,-1.2309521E0,-0E0,-3.0344918E-1,2.4065852E-1,-1.5130994E0,-1.0403601E-1,-1.3375629E0,-0E0,5.035136E-1,-1.7221414E-1,-1.0022197E0,-0E0,-2.2644441E-1,1.9036724E-1],"categories":[],"categories_nodes":[],"categories_segments":[],"categories_sizes":[],"default_left":[1,1,1,1,1,1,1,1,1,1,1,1,1,1,1,1,1,1,1,1,1,1,1,1,1,1,1,1,1,1,0,1,1,1,1,1,1,1,0,1,1,1,1,1,0,0,0,1,0,1,0,1,0,1,0,1,1,1,1,1,0,1,1,1,1,1,1,1,1,1,1,0,0,1,0,1,1,1,0,1,0,0,0,1,0,1,1,1,0,1,0,0,0,1,1,1,0,0,0,0,1,0,0,1,0,1,1,1,1,0,0,1,1,1,1,1,0,1,1,1,1,0,0,0,0,1,1,1,0,0,0,1,0,0,0,1,1,1,1,1,1,0,1,1,1,1,1,1,1,0,0,1,1,1,1,1,0,1,1,1,1,1,0,0,0,1,1,0,0,1,0,1,0,1,0,0,0,1,0,1,1,1,0,1,1,0,0,1,1,0,0,1,1,0,0,1,0,1,0,0,0,1,1,0,0,1,0,0,0,1,0,0,0,1,1,1,1,1,0,0,1,0,1,1,0,1,0,1,0,1,1,1,0,1,0,1,1,1,0,1,1,1,0,0,0,1,1,1,1,1,0,0,0,0,0,1,1,1,0,1,0,0,0,0,0,0,0,0,0,1,1,0,1,1,1,1,1,0,0,0,0,0,0,0,0,0,0,1,0,1,0,0,0,1,0,0,0,1,0,1,0,1,1,1,0,0,0,1,0,0,0,0,0,0,0,1,1,0,0,1,1,1,1,1,0,1,1,0,0,1,0,0,0,1,1,0,1,0,0,1,0,0,0,1,1,0,0,0,0,1,1,1,0,0,0,1,1,1,0,0,0,0,0,1,0,1,0,0,1,1,0,1,0,1,1,0,0,0,0,1,0,0,0,1,0,1,1,1,0,0,0,1,0,1,1,1,0,1,0,0,0,1,0,1,1,0,0,1,0,0,0,1,0,0,0,1,1,1,1,1,0,1,0,1,0,1,0,1,1,0,0,1,1,0,0,1,0,0,0,0,0,1,0,0,0,1,0,1,1,1,0,1,0,1,1,0,1,0,0,0,0,1,0,0,0,1,1,0,1,1,1,0,0,1,0,0,0,1,0,1,0,1,1,0,0,1,0,1,1,1,1,0,0,0,0,0,0,1,0,1,0,0,0,0,0,1,1,0,1,0,0,0,0,0,0,0,0,0,0,0,0,0,0,0,0,0,0,0,0,0,0,0,0,0,0,0,0,0,0],"id":2,"left_children":[1,3,5,7,9,11,13,15,17,19,21,23,25,27,29,31,33,35,37,39,41,43,45,47,49,51,53,55,57,59,-1,61,63,65,67,69,71,73,-1,75,77,79,81,83,-1,-1,-1,85,-1,87,-1,89,-1,91,-1,93,95,97,99,101,-1,103,105,107,109,111,113,115,117,119,121,-1,-1,123,-1,125,127,129,-1,131,-1,-1,-1,133,-1,135,137,139,-1,141,-1,-1,-1,143,145,147,-1,-1,-1,-1,149,-1,-1,151,-1,153,155,157,159,-1,-1,161,163,165,167,169,-1,171,173,175,177,-1,-1,-1,-1,179,181,183,-1,-1,-1,185,-1,-1,-1,187,189,191,193,195,197,-1,199,201,203,205,207,209,211,-1,-1,213,215,217,219,221,-1,223,225,227,229,231,-1,-1,-1,233,235,-1,-1,237,-1,239,-1,241,-1,-1,-1,243,-1,245,247,249,-1,251,253,-1,-1,255,257,-1,-1,259,261,-1,-1,263,-1,265,-1,-1,-1,267,269,-1,-1,271,-1,-1,-1,273,-1,-1,-1,275,277,279,281,283,-1,-1,285,-1,287,289,-1,291,-1,293,-1,295,297,299,-1,301,-1,303,305,307,-1,309,311,313,-1,-1,-1,315,317,319,321,323,-1,-1,-1,-1,-1,325,327,329,-1,331,-1,-1,-1,-1,-1,-1,-1,-1,-1,333,335,-1,337,339,341,343,345,-1,-1,-1,-1,-1,-1,-1,-1,-1,-1,347,-1,349,-1,-1,-1,351,-1,-1,-1,353,-1,355,-1,357,359,361,-1,-1,-1,363,-1,-1,-1,-1,-1,-1,-1,365,367,-1,-1,369,371,373,375,377,-1,379,381,-1,-1,383,-1,-1,-1,385,387,-1,389,-1,-1,391,-1,-1,-1,393,395,-1,-1,-1,-1,397,399,401,-1,-1,-1,403,405,407,-1,-1,-1,-1,-1,409,-1,411,-1,-1,413,415,-1,417,-1,419,421,-1,-1,-1,-1,423,-1,-1,-1,425,-1,427,429,431,-1,-1,-1,433,-1,435,437,439,-1,441,-1,-1,-1,443,-1,445,447,-1,-1,449,-1,-1,-1,451,-1,-1,-1,453,455,457,459,461,-1,463,-1,465,-1,467,-1,469,471,-1,-1,473,475,-1,-1,477,-1,-1,-1,-1,-1,479,-1,-1,-1,481,-1,483,485,487,-1,489,-1,491,493,-1,495,-1,-1,-1,-1,497,-1,-1,-1,499,501,-1,503,505,507,-1,-1,509,-1,-1,-1,511,-1,513,-1,515,517,-1,-1,519,-1,521,523,525,527,-1,-1,-1,-1,-1,-1,529,-1,531,-1,-1,-1,-1,-1,533,535,-1,537,-1,-1,-1,-1,-1,-1,-1,-1,-1,-1,-1,-1,-1,-1,-1,-1,-1,-1,-1,-1,-1,-1,-1,-1,-1,-1,-1,-1,-1,-1],"loss_changes":[2.2714502E2,1.20095215E2,4.593684E1,5.384961E1,1.913826E1,1.50594635E1,1.824899E1,3.9033203E1,6.445572E0,1.2823753E1,3.027945E0,8.306297E0,5.0190644E0,1.1134107E1,3.5438957E0,1.2303711E1,2.2416473E1,3.939108E0,5.1534204E0,9.482918E0,2.2842352E0,2.7212605E0,1.265894E0,6.474922E0,4.6728196E0,2.1167755E0,1.2519954E0,1.004673E1,3.5875273E0,1.5733471E0,0E0,1.0345459E1,8.653839E0,8.044647E0,9.21615E0,3.780437E0,1.089216E0,3.8299751E0,0E0,9.429283E0,2.5270214E0,2.7472818E0,5.63658E-1,2.4577332E0,0E0,0E0,0E0,6.135132E0,0E0,3.5466518E0,0E0,1.3630152E0,0E0,3.0825424E-1,0E0,8.37258E0,3.9521394E0,1.1847687E0,2.8137562E0,1.7375622E0,0E0,6.8571777E0,5.0964947E0,6.9953613E0,9.82736E-1,7.5124817E0,4.9805527E0,5.382066E0,6.340994E0,2.9846191E0,5.676022E-1,0E0,0E0,9.93001E-1,0E0,7.7369385E0,3.6147206E0,2.2312903E-1,0E0,1.4424567E0,0E0,0E0,0E0,1.5865335E0,0E0,5.45105E0,3.3919942E0,2.9985476E0,0E0,5.561886E-1,0E0,0E0,0E0,6.7314434E0,3.751643E0,3.6853027E0,0E0,0E0,0E0,0E0,2.5456345E-1,0E0,0E0,6.4160156E0,0E0,4.0603714E0,2.8958595E0,5.211212E0,9.829664E0,0E0,0E0,4.0042725E0,1.0181892E0,3.625019E0,1.8714577E0,4.3390884E0,0E0,5.250124E0,2.8711343E0,1.0366583E0,1.066046E0,0E0,0E0,0E0,0E0,6.697357E0,2.7888756E0,1.9971869E0,0E0,0E0,0E0,7.37401E-1,0E0,0E0,0E0,5.589752E0,6.9400907E-1,7.931205E0,2.5627801E0,1.8897047E0,2.548399E0,0E0,1.8260622E-1,6.3727026E0,2.0413384E0,2.1208231E0,1.5276899E0,3.0530882E0,9.63806E-1,0E0,0E0,6.20459E0,2.9811954E0,2.9024162E0,1.4204572E0,2.3786156E0,0E0,4.669403E0,4.451782E0,6.69709E0,1.7088122E0,3.8400269E0,0E0,0E0,0E0,3.8388023E0,2.4201431E0,0E0,0E0,3.0824413E0,0E0,1.2681288E0,0E0,3.182713E0,0E0,0E0,0E0,5.4280585E-1,0E0,7.9515076E0,7.435768E0,2.4658837E0,0E0,1.1987624E0,2.8208451E0,0E0,0E0,5.0701294E0,3.948864E0,0E0,0E0,1.799573E0,1.0506374E0,0E0,0E0,2.47358E0,0E0,7.69845E-1,0E0,0E0,0E0,1.2784824E0,5.472663E0,0E0,0E0,4.12538E0,0E0,0E0,0E0,3.3725357E0,0E0,0E0,0E0,5.6689453E0,1.717875E-1,2.468606E0,5.5128986E-1,9.001045E-1,0E0,0E0,1.4981854E-1,0E0,8.9746517E-1,4.662323E0,0E0,1.6747118E0,0E0,5.2392387E0,0E0,9.529815E-1,1.0714302E0,4.336487E0,0E0,3.1261864E0,0E0,2.5618403E0,1.4932728E0,3.120615E0,0E0,5.1822996E-1,1.1196134E0,1.9852421E0,0E0,0E0,0E0,4.3247833E0,1.857632E0,3.7620964E0,5.7157955E0,2.0179656E0,0E0,0E0,0E0,0E0,0E0,4.2929993E0,1.2805358E0,4.351107E0,0E0,1.2016382E0,0E0,0E0,0E0,0E0,0E0,0E0,0E0,0E0,0E0,5.6382036E0,6.5760736E0,0E0,5.922239E-1,2.5399208E0,1.9021349E0,5.142334E0,3.1515473E-1,0E0,0E0,0E0,0E0,0E0,0E0,0E0,0E0,0E0,0E0,5.1264936E-1,0E0,4.309387E0,0E0,0E0,0E0,5.250244E0,0E0,0E0,0E0,3.4836495E-1,0E0,2.7327576E0,0E0,3.1476326E0,4.0597913E-1,7.502475E-1,0E0,0E0,0E0,1.2816772E0,0E0,0E0,0E0,0E0,0E0,0E0,0E0,4.4237213E0,1.2521241E0,0E0,0E0,3.8441858E0,2.7752762E0,4.2838593E0,2.7916079E0,7.7351E-1,0E0,4.484558E0,6.5984803E-1,0E0,0E0,3.383503E0,0E0,0E0,0E0,4.2443995E0,4.4390016E0,0E0,1.1685514E0,0E0,0E0,1.9349537E0,0E0,0E0,0E0,5.1416016E0,9.357336E0,0E0,0E0,0E0,0E0,4.0792847E0,3.4416115E0,2.2464104E0,0E0,0E0,0E0,3.0448608E0,1.1762309E0,2.4650154E0,0E0,0E0,0E0,0E0,0E0,2.968979E-1,0E0,3.3560638E0,0E0,0E0,6.256459E-1,4.077305E0,0E0,2.1998043E0,0E0,1.3992691E0,1.0076013E0,0E0,0E0,0E0,0E0,3.182663E0,0E0,0E0,0E0,2.7547493E0,0E0,5.2327003E0,4.188308E0,5.392472E0,0E0,0E0,0E0,1.0631618E0,0E0,4.986084E0,4.1041663E-1,9.742012E-1,0E0,3.8477783E0,0E0,0E0,0E0,2.023735E0,0E0,1.586731E0,4.223174E0,0E0,0E0,1.2907791E0,0E0,0E0,0E0,3.2682343E0,0E0,0E0,0E0,2.1729832E0,8.940087E-1,1.95088E0,8.380424E-1,1.279747E0,0E0,6.517632E-1,0E0,2.442749E0,0E0,2.8803062E0,0E0,2.6258423E0,8.123846E-1,0E0,0E0,3.696702E0,1.6631359E0,0E0,0E0,4.7316895E0,0E0,0E0,0E0,0E0,0E0,3.6419678E0,0E0,0E0,0E0,1.6219482E0,0E0,2.2003431E0,1.9738979E0,1.2958984E0,0E0,3.3744202E0,0E0,2.7681084E0,5.39832E-2,0E0,2.573819E-1,0E0,0E0,0E0,0E0,1.3985405E0,0E0,0E0,0E0,2.8573303E0,1.372413E0,0E0,1.5774603E0,2.504451E0,2.4976215E0,0E0,0E0,9.464121E-1,0E0,0E0,0E0,4.0161133E0,0E0,3.5951233E0,0E0,1.6001892E0,8.783231E-1,0E0,0E0,1.0433495E0,0E0,1.3606415E0,1.1362534E0,3.019165E0,3.5856456E-1,0E0,0E0,0E0,0E0,0E0,0E0,3.1578064E-2,0E0,2.608368E0,0E0,0E0,0E0,0E0,0E0,2.2884655E0,1.6959674E0,0E0,1.9597998E-1,0E0,0E0,0E0,0E0,0E0,0E0,0E0,0E0,0E0,0E0,0E0,0E0,0E0,0E0,0E0,0E0,0E0,0E0,0E0,0E0,0E0,0E0,0E0,0E0,0E0,0E0,0E0,0E0,0E0,0E0],"parents":[2147483647,0,0,1,1,2,2,3,3,4,4,5,5,6,6,7,7,8,8,9,9,10,10,11,11,12,12,13,13,14,14,15,15,16,16,17,17,18,18,19,19,20,20,21,21,22,22,23,23,24,24,25,25,26,26,27,27,28,28,29,29,31,31,32,32,33,33,34,34,35,35,36,36,37,37,39,39,40,40,41,41,42,42,43,43,47,47,49,49,51,51,53,53,55,55,56,56,57,57,58,58,59,59,61,61,62,62,63,63,64,64,65,65,66,66,67,67,68,68,69,69,70,70,73,73,75,75,76,76,77,77,79,79,83,83,85,85,86,86,87,87,89,89,93,93,94,94,95,95,100,100,103,103,105,105,106,106,107,107,108,108,111,111,112,112,113,113,114,114,115,115,117,117,118,118,119,119,120,120,125,125,126,126,127,127,131,131,135,135,136,136,137,137,138,138,139,139,140,140,142,142,143,143,144,144,145,145,146,146,147,147,148,148,151,151,152,152,153,153,154,154,155,155,157,157,158,158,159,159,160,160,161,161,165,165,166,166,169,169,171,171,173,173,177,177,179,179,180,180,181,181,183,183,184,184,187,187,188,188,191,191,192,192,195,195,197,197,201,201,202,202,205,205,209,209,213,213,214,214,215,215,216,216,217,217,220,220,222,222,223,223,225,225,227,227,229,229,230,230,231,231,233,233,235,235,236,236,237,237,239,239,240,240,241,241,245,245,246,246,247,247,248,248,249,249,255,255,256,256,257,257,259,259,269,269,270,270,272,272,273,273,274,274,275,275,276,276,287,287,289,289,293,293,297,297,299,299,301,301,302,302,303,303,307,307,315,315,316,316,319,319,320,320,321,321,322,322,323,323,325,325,326,326,329,329,333,333,334,334,336,336,339,339,343,343,344,344,349,349,350,350,351,351,355,355,356,356,357,357,363,363,365,365,368,368,369,369,371,371,373,373,374,374,379,379,383,383,385,385,386,386,387,387,391,391,393,393,394,394,395,395,397,397,401,401,403,403,404,404,407,407,411,411,415,415,416,416,417,417,418,418,419,419,421,421,423,423,425,425,427,427,428,428,431,431,432,432,435,435,441,441,445,445,447,447,448,448,449,449,451,451,453,453,454,454,456,456,461,461,465,465,466,466,468,468,469,469,470,470,473,473,477,477,479,479,481,481,482,482,485,485,487,487,488,488,489,489,490,490,497,497,499,499,505,505,506,506,508,508],"right_children":[2,4,6,8,10,12,14,16,18,20,22,24,26,28,30,32,34,36,38,40,42,44,46,48,50,52,54,56,58,60,-1,62,64,66,68,70,72,74,-1,76,78,80,82,84,-1,-1,-1,86,-1,88,-1,90,-1,92,-1,94,96,98,100,102,-1,104,106,108,110,112,114,116,118,120,122,-1,-1,124,-1,126,128,130,-1,132,-1,-1,-1,134,-1,136,138,140,-1,142,-1,-1,-1,144,146,148,-1,-1,-1,-1,150,-1,-1,152,-1,154,156,158,160,-1,-1,162,164,166,168,170,-1,172,174,176,178,-1,-1,-1,-1,180,182,184,-1,-1,-1,186,-1,-1,-1,188,190,192,194,196,198,-1,200,202,204,206,208,210,212,-1,-1,214,216,218,220,222,-1,224,226,228,230,232,-1,-1,-1,234,236,-1,-1,238,-1,240,-1,242,-1,-1,-1,244,-1,246,248,250,-1,252,254,-1,-1,256,258,-1,-1,260,262,-1,-1,264,-1,266,-1,-1,-1,268,270,-1,-1,272,-1,-1,-1,274,-1,-1,-1,276,278,280,282,284,-1,-1,286,-1,288,290,-1,292,-1,294,-1,296,298,300,-1,302,-1,304,306,308,-1,310,312,314,-1,-1,-1,316,318,320,322,324,-1,-1,-1,-1,-1,326,328,330,-1,332,-1,-1,-1,-1,-1,-1,-1,-1,-1,334,336,-1,338,340,342,344,346,-1,-1,-1,-1,-1,-1,-1,-1,-1,-1,348,-1,350,-1,-1,-1,352,-1,-1,-1,354,-1,356,-1,358,360,362,-1,-1,-1,364,-1,-1,-1,-1,-1,-1,-1,366,368,-1,-1,370,372,374,376,378,-1,380,382,-1,-1,384,-1,-1,-1,386,388,-1,390,-1,-1,392,-1,-1,-1,394,396,-1,-1,-1,-1,398,400,402,-1,-1,-1,404,406,408,-1,-1,-1,-1,-1,410,-1,412,-1,-1,414,416,-1,418,-1,420,422,-1,-1,-1,-1,424,-1,-1,-1,426,-1,428,430,432,-1,-1,-1,434,-1,436,438,440,-1,442,-1,-1,-1,444,-1,446,448,-1,-1,450,-1,-1,-1,452,-1,-1,-1,454,456,458,460,462,-1,464,-1,466,-1,468,-1,470,472,-1,-1,474,476,-1,-1,478,-1,-1,-1,-1,-1,480,-1,-1,-1,482,-1,484,486,488,-1,490,-1,492,494,-1,496,-1,-1,-1,-1,498,-1,-1,-1,500,502,-1,504,506,508,-1,-1,510,-1,-1,-1,512,-1,514,-1,516,518,-1,-1,520,-1,522,524,526,528,-1,-1,-1,-1,-1,-1,530,-1,532,-1,-1,-1,-1,-1,534,536,-1,538,-1,-1,-1,-1,-1,-1,-1,-1,-1,-1,-1,-1,-1,-1,-1,-1,-1,-1,-1,-1,-1,-1,-1,-1,-1,-1,-1,-1,-1,-1],"split_conditions":[8.9587975E-1,8.9587975E-1,1.2424533E0,3.465736E-1,1.8688347E0,8.9587975E-1,3.465736E-1,3.465736E-1,3.465736E-1,8.9587975E-1,1.4978662E0,1.2424533E0,3.465736E-1,2.441401E0,1.4978662E0,3.465736E-1,3.465736E-1,8.9587975E-1,1.4978662E0,1.2424533E0,3.465736E-1,3.465736E-1,3.465736E-1,8.9587975E-1,2.441401E0,3.465736E-1,3.465736E-1,1.2424533E0,3.465736E-1,2.9944806E0,-0E0,1.2424533E0,2.9944806E0,3.465736E-1,8.9587975E-1,3.465736E-1,3.465736E-1,3.465736E-1,-6.1143186E-2,1.8688347E0,3.465736E-1,3.465736E-1,3.465736E-1,3.465736E-1,-1.5159966E-3,1.7320102E-2,-6.527962E-2,8.9587975E-1,4.9039792E-2,8.9587975E-1,-1.1070263E-1,1.0397208E0,-0E0,1.6661022E0,-0E0,8.9587975E-1,1.732868E0,2.0715673E0,2.4814224E0,1.2424533E0,-0E0,2.0126758E0,3.465736E-1,3.465736E-1,8.9587975E-1,3.465736E-1,8.9587975E-1,3.465736E-1,3.465736E-1,8.9587975E-1,3.465736E-1,8.295636E-2,-0E0,1.2424533E0,-0E0,3.465736E-1,2.2499049E0,3.465736E-1,-2.0737192E-2,3.465736E-1,-2.1798747E-2,-5.990359E-2,-0E0,1.2424533E0,-0E0,3.465736E-1,8.9587975E-1,3.465736E-1,-7.522508E-2,8.9587975E-1,-0E0,-0E0,-9.6882164E-2,2.673554E0,3.465736E-1,3.465736E-1,-5.2838456E-2,-1.3742676E-1,-0E0,5.2156765E-2,1.7005987E0,1.4242594E-1,-0E0,1.2424533E0,-0E0,3.465736E-1,3.465736E-1,3.465736E-1,8.9587975E-1,7.3931165E-2,-0E0,1.4978662E0,3.465736E-1,3.465736E-1,1.2424533E0,2.4814224E0,3.803878E-2,3.465736E-1,1.2424533E0,2.0715673E0,2.1242476E0,5.853932E-2,-0E0,1.3761719E-1,-0E0,3.465736E-1,3.465736E-1,8.9587975E-1,-7.411482E-2,1.05119444E-1,-0E0,8.9587975E-1,-0E0,1.3232888E-1,-0E0,3.465736E-1,3.465736E-1,2.6020033E0,2.6711671E0,1.7005987E0,3.465736E-1,-0E0,6.931472E-1,3.465736E-1,5.4930615E-1,3.465736E-1,3.465736E-1,2.2499049E0,3.465736E-1,-0E0,-8.589917E-2,1.4978662E0,8.9587975E-1,3.465736E-1,1.8688347E0,3.465736E-1,6.3485935E-2,8.9587975E-1,3.465736E-1,1.7005987E0,8.9587975E-1,8.9587975E-1,-0E0,-3.8042556E-2,4.4989206E-2,1.4978662E0,2.2386684E0,8.565457E-2,-1.9520378E-2,3.465736E-1,1.2455395E-2,3.465736E-1,-1.13545716E-1,1.2424533E0,-1.1976024E-2,-1.2551528E-1,-0E0,8.9587975E-1,-5.639517E-2,3.465736E-1,2.138333E0,3.465736E-1,7.786756E-2,3.465736E-1,1.2424533E0,1.1768713E-1,-0E0,2.524928E0,1.4978662E0,4.2206418E-2,-2.2695351E-2,3.465736E-1,1.1512926E0,1.0623157E-1,-1.2805331E-2,1.0397208E0,-0E0,8.9587975E-1,-7.870537E-2,1.2797382E-1,-0E0,1.8688347E0,1.8688347E0,1.14697754E-1,-0E0,3.465736E-1,7.249389E-2,1.2196191E-1,-0E0,3.465736E-1,-2.949762E-3,1.6626488E-2,-5.2001476E-2,1.4978662E0,1.7005987E0,3.465736E-1,3.465736E-1,3.465736E-1,-0E0,4.6316378E-2,3.465736E-1,-9.717939E-2,3.465736E-1,8.9587975E-1,-0E0,5.4930615E-1,-1.0706109E-1,3.465736E-1,4.680946E-2,2.29756E0,3.465736E-1,8.9587975E-1,-0E0,3.465736E-1,8.820163E-3,3.465736E-1,2.2499049E0,3.465736E-1,-0E0,8.9587975E-1,8.9587975E-1,1.4978662E0,1.3690034E-1,-0E0,4.9008284E-2,1.2424533E0,1.2424533E0,3.465736E-1,3.465736E-1,3.465736E-1,4.0462386E-2,1.1474085E-1,-0E0,-8.3228014E-2,5.5650126E-2,1.4978662E0,3.465736E-1,8.9587975E-1,5.6851048E-2,3.465736E-1,-0E0,9.5380105E-2,-0E0,1.22792E-1,-0E0,-0E0,6.937514E-2,-1.3477597E-1,-0E0,1.4978662E0,8.9587975E-1,-1.11988224E-1,8.9587975E-1,1.8688347E0,8.9587975E-1,8.9587975E-1,1.5222611E0,1.6821055E-2,-2.0363623E-2,-1.13220505E-1,-0E0,4.9638122E-2,-0E0,-1.4328706E-1,-0E0,-0E0,-6.4782955E-2,2.0126758E0,-4.342534E-2,1.7005987E0,-0E0,8.134681E-2,-3.8965673E-3,1.4978662E0,1.5269517E-2,8.4230945E-2,-0E0,3.465736E-1,1.0182223E-2,1.2424533E0,-0E0,8.9587975E-1,3.465736E-1,1.2424533E0,1.472615E-2,9.086743E-2,-0E0,8.9587975E-1,-0E0,-5.5253543E-2,-0E0,8.0681674E-2,-0E0,6.382912E-2,-3.8244497E-2,8.9587975E-1,3.465736E-1,8.806042E-2,-1.3530043E-2,8.9587975E-1,1.2424533E0,3.465736E-1,3.465736E-1,3.465736E-1,-0E0,1.2424533E0,2.4814224E0,6.597296E-2,-3.4877002E-2,3.465736E-1,3.7193943E-2,-1.3042475E-1,-0E0,3.465736E-1,3.465736E-1,3.6867805E-2,3.465736E-1,6.1339032E-2,-0E0,1.6661022E0,-0E0,-7.080301E-2,5.432851E-2,2.673554E0,3.465736E-1,-2.6988376E-2,2.4509398E-2,5.2535255E-2,-0E0,1.4978662E0,5.4930615E-1,3.465736E-1,4.863405E-3,-0E0,-7.559546E-2,3.465736E-1,3.465736E-1,3.465736E-1,-0E0,-2.5160734E-2,3.3426214E-2,-1.0184737E-1,-0E0,2.2386684E0,-0E0,1.2424533E0,6.0609463E-3,-5.3657085E-2,1.5222611E0,1.2424533E0,6.841193E-2,2.138333E0,9.867393E-2,3.465736E-1,3.1132684E0,7.687618E-2,-5.4333635E-2,-1.1452546E-1,-0E0,3.465736E-1,-0E0,-4.421892E-2,1.9591004E-2,8.9587975E-1,9.738618E-3,2.138333E0,3.465736E-1,1.2424533E0,-7.0060514E-2,-1.4887957E-1,-0E0,1.994492E0,-0E0,2.0126758E0,3.465736E-1,3.465736E-1,6.969879E-2,1.2424533E0,-0E0,-8.1275634E-2,8.1936084E-2,3.465736E-1,-0E0,2.0126758E0,3.465736E-1,1.1772267E-2,-6.849351E-2,1.0397208E0,-0E0,-1.4181398E-1,-2.8399345E-3,1.4978662E0,-0E0,6.74262E-2,-0E0,8.9587975E-1,3.465736E-1,3.465736E-1,3.465736E-1,1.2424533E0,-0E0,3.465736E-1,-5.6473088E-2,3.465736E-1,-0E0,3.465736E-1,-0E0,3.465736E-1,1.2424533E0,-1.3174325E-1,-0E0,3.465736E-1,3.465736E-1,1.2639485E-1,-0E0,1.2424533E0,-0E0,1.3475015E-2,-3.67134E-2,-1.2843093E-1,-0E0,1.4978662E0,-0E0,-1.4837764E-1,-0E0,1.2424533E0,-1.023142E-3,3.465736E-1,2.29756E0,1.2424533E0,-0E0,3.465736E-1,-0E0,3.465736E-1,1.2424533E0,5.7450872E-2,3.465736E-1,8.1921175E-2,-1.244939E-2,-8.7511145E-2,-0E0,1.2424533E0,-0E0,-0E0,6.488246E-2,1.7005987E0,8.9587975E-1,-1.3569677E-1,3.465736E-1,3.465736E-1,1.4978662E0,8.898483E-2,-0E0,2.0715673E0,-0E0,-8.22264E-2,1.3384749E-2,1.4978662E0,-0E0,1.4978662E0,-0E0,8.9587975E-1,3.465736E-1,-1.2929139E-1,-0E0,1.0397208E0,7.913602E-2,8.9587975E-1,1.6661022E0,3.465736E-1,8.9587975E-1,-1.1864996E-1,-0E0,8.511683E-3,-1.2708965E-2,-3.292912E-2,-0E0,1.2424533E0,-0E0,8.9587975E-1,-0E0,-6.0456615E-2,3.0893717E-2,4.168712E-2,-6.789136E-2,3.465736E-1,3.465736E-1,-1.2728746E-1,3.465736E-1,1.4110334E-1,-0E0,-1.50082E-1,-0E0,-1.4317462E-1,-0E0,-1.4691244E-1,-0E0,-5.869162E-2,-0E0,-0E0,-6.217763E-2,-1.2419118E-1,-0E0,2.2995409E-2,-6.4213954E-2,-1.23095214E-1,-0E0,-3.0344918E-2,2.4065852E-2,-1.5130995E-1,-1.0403601E-2,-1.337563E-1,-0E0,5.035136E-2,-1.7221414E-2,-1.0022197E-1,-0E0,-2.2644442E-2,1.9036723E-2],"split_indices":[39,222,39,248,222,223,248,223,223,313,101,222,206,307,14,120,120,316,101,79,12,66,38,248,271,313,179,222,266,76,0,28,112,150,322,205,350,307,0,308,286,128,88,205,0,0,0,220,0,205,0,101,0,110,0,164,74,88,62,135,0,16,40,166,97,35,40,29,280,280,150,0,0,150,0,288,129,37,0,109,0,0,0,306,0,290,315,334,0,125,0,0,0,90,150,138,0,0,0,0,124,0,0,218,0,23,161,313,90,0,0,55,63,254,110,90,0,84,279,89,62,0,0,0,0,89,37,2,0,0,0,188,0,0,0,38,325,76,76,125,14,0,165,42,297,13,190,108,218,0,0,177,124,10,62,222,0,240,156,350,120,78,0,0,0,186,76,0,0,36,0,222,0,81,0,0,0,156,0,235,62,356,0,135,124,0,0,108,165,0,0,23,110,0,0,306,0,40,0,0,0,108,110,0,0,88,0,0,0,269,0,0,0,166,177,51,40,228,0,0,150,0,266,234,0,76,0,240,0,88,135,69,0,103,0,194,62,160,0,120,277,268,0,0,0,244,268,279,207,13,0,0,0,0,0,102,218,310,0,128,0,0,0,0,0,0,0,0,0,40,299,0,110,304,121,314,90,0,0,0,0,0,0,0,0,0,0,299,0,9,0,0,0,279,0,0,0,76,0,192,0,9,126,63,0,0,0,304,0,0,0,0,0,0,0,251,150,0,0,126,125,186,334,28,0,191,76,0,0,188,0,0,0,307,179,0,251,0,0,132,0,0,0,326,164,0,0,0,0,55,165,291,0,0,0,138,13,314,0,0,0,0,0,110,0,177,0,0,135,90,0,299,0,286,62,0,0,0,0,139,0,0,0,41,0,280,244,325,0,0,0,86,0,137,271,182,0,22,0,0,0,6,0,165,1,0,0,301,0,0,0,77,0,0,0,164,76,266,38,26,0,271,0,4,0,205,0,283,322,0,0,138,41,0,0,236,0,0,0,0,0,34,0,0,0,305,0,164,76,192,0,117,0,213,222,0,300,0,0,0,0,218,0,0,0,32,127,0,164,199,127,0,0,280,0,0,0,42,0,13,0,30,222,0,0,299,0,82,76,224,277,0,0,0,0,0,0,316,0,182,0,0,0,0,0,218,334,0,304,0,0,0,0,0,0,0,0,0,0,0,0,0,0,0,0,0,0,0,0,0,0,0,0,0,0,0,0,0,0],"split_type":[0,0,0,0,0,0,0,0,0,0,0,0,0,0,0,0,0,0,0,0,0,0,0,0,0,0,0,0,0,0,0,0,0,0,0,0,0,0,0,0,0,0,0,0,0,0,0,0,0,0,0,0,0,0,0,0,0,0,0,0,0,0,0,0,0,0,0,0,0,0,0,0,0,0,0,0,0,0,0,0,0,0,0,0,0,0,0,0,0,0,0,0,0,0,0,0,0,0,0,0,0,0,0,0,0,0,0,0,0,0,0,0,0,0,0,0,0,0,0,0,0,0,0,0,0,0,0,0,0,0,0,0,0,0,0,0,0,0,0,0,0,0,0,0,0,0,0,0,0,0,0,0,0,0,0,0,0,0,0,0,0,0,0,0,0,0,0,0,0,0,0,0,0,0,0,0,0,0,0,0,0,0,0,0,0,0,0,0,0,0,0,0,0,0,0,0,0,0,0,0,0,0,0,0,0,0,0,0,0,0,0,0,0,0,0,0,0,0,0,0,0,0,0,0,0,0,0,0,0,0,0,0,0,0,0,0,0,0,0,0,0,0,0,0,0,0,0,0,0,0,0,0,0,0,0,0,0,0,0,0,0,0,0,0,0,0,0,0,0,0,0,0,0,0,0,0,0,0,0,0,0,0,0,0,0,0,0,0,0,0,0,0,0,0,0,0,0,0,0,0,0,0,0,0,0,0,0,0,0,0,0,0,0,0,0,0,0,0,0,0,0,0,0,0,0,0,0,0,0,0,0,0,0,0,0,0,0,0,0,0,0,0,0,0,0,0,0,0,0,0,0,0,0,0,0,0,0,0,0,0,0,0,0,0,0,0,0,0,0,0,0,0,0,0,0,0,0,0,0,0,0,0,0,0,0,0,0,0,0,0,0,0,0,0,0,0,0,0,0,0,0,0,0,0,0,0,0,0,0,0,0,0,0,0,0,0,0,0,0,0,0,0,0,0,0,0,0,0,0,0,0,0,0,0,0,0,0,0,0,0,0,0,0,0,0,0,0,0,0,0,0,0,0,0,0,0,0,0,0,0,0,0,0,0,0,0,0,0,0,0,0,0,0,0,0,0,0,0,0,0,0,0,0,0,0,0,0,0,0,0,0,0,0,0,0,0,0,0,0,0,0,0,0,0,0,0,0,0,0,0,0,0,0,0,0,0,0,0,0,0,0,0,0,0,0,0,0,0,0,0,0,0,0,0,0,0,0,0,0],"sum_hessian":[2.9052415E3,2.5736006E3,3.316408E2,2.3443027E3,2.2929791E2,1.8283534E2,1.4880547E2,2.3148103E3,2.9492498E1,2.1516798E2,1.4129915E1,1.6793333E2,1.4902008E1,1.3506245E2,1.3742999E1,2.023874E3,2.909362E2,1.9607832E1,9.884666E0,2.040189E2,1.114908E1,1.0902161E1,3.2277546E0,1.4983609E2,1.8097252E1,9.681286E0,5.2207212E0,1.2003593E2,1.5026533E1,1.2742999E1,1E0,1.7947506E3,2.2912343E2,2.4452333E2,4.641286E1,1.6617193E1,2.9906394E0,8.638757E0,1.2459097E0,1.990426E2,4.9763017E0,8.6637125E0,2.485368E0,9.406344E0,1.4958162E0,1.238255E0,1.9894994E0,1.4809512E2,1.7409656E0,1.5131923E1,2.965329E0,8.189909E0,1.4913772E0,3.4749372E0,1.7457843E0,9.0577065E1,2.945886E1,9.5851E0,5.441433E0,1.1742999E1,1E0,1.7598253E3,3.4925316E1,2.2641403E2,2.7093897E0,1.7426854E2,7.025479E1,2.4362738E1,2.2050125E1,1.4126239E1,2.4909544E0,1.7415804E0,1.2490591E0,7.1406507E0,1.4981055E0,1.8787463E2,1.1167971E1,3.7289646E0,1.2473369E0,7.4205217E0,1.2431906E0,1.2441297E0,1.2412385E0,8.1650915E0,1.2412527E0,1.3230919E2,1.5785936E1,1.264935E1,2.4825733E0,6.699314E0,1.4905949E0,1.2415957E0,2.2333415E0,7.66746E1,1.390247E1,2.7719099E1,1.7397628E0,8.343289E0,1.241811E0,2.2367215E0,3.2047114E0,1.0515844E1,1.2271554E0,1.757587E3,2.2382882E0,2.424966E1,1.0675656E1,1.8806491E2,3.834912E1,1.2351741E0,1.4742156E0,1.7052629E2,3.7422564E0,6.679228E1,3.46251E0,2.2373611E1,1.9891248E0,1.0645507E1,1.1404618E1,8.6495695E0,5.4766693E0,1.2424824E0,1.248472E0,5.90033E0,1.240321E0,1.7769739E2,1.0177244E1,8.688519E0,2.4794521E0,2.4863257E0,1.2426388E0,5.933785E0,1.4867367E0,6.42936E0,1.7357316E0,1.2881491E2,3.4942808E0,1.2567949E1,3.2179873E0,7.432365E0,5.2169847E0,1.2427238E0,5.45659E0,7.270066E1,3.9739356E0,6.7107577E0,7.191712E0,2.3994614E1,3.7244842E0,1.2338388E0,1.9708725E0,1.7477596E3,9.827369E0,2.006437E1,4.185291E0,8.677082E0,1.9985743E0,1.8140096E2,6.663956E0,2.9522085E1,8.827036E0,1.6928978E2,1.2365054E0,1.4976033E0,2.244653E0,5.6965393E1,9.82689E0,1.4894716E0,1.9730386E0,2.0636885E1,1.7367277E0,6.197622E0,4.4478846E0,9.666742E0,1.7378767E0,7.414732E0,1.2348372E0,3.4911087E0,1.9855608E0,1.1762634E2,6.007105E1,7.690081E0,2.4871628E0,4.971147E0,3.7173715E0,4.6936707E0,1.2401143E0,1.09749954E2,1.9064949E1,2.24575E0,1.2485309E0,9.597695E0,2.9702542E0,1.9852083E0,1.2327791E0,6.1947694E0,1.2375956E0,2.729038E0,2.4879467E0,3.9689949E0,1.4875956E0,8.362162E0,6.43385E1,2.7342682E0,1.2396674E0,5.221774E0,1.4889836E0,4.957612E0,2.2341E0,2.200212E1,1.9924955E0,1.2354668E0,2.4890172E0,1.7448329E3,2.9268277E0,6.871934E0,2.9554348E0,1.8350853E1,1.7135156E0,1.4872658E0,2.6980247E0,3.460822E0,5.2162595E0,1.7944469E2,1.9562745E0,3.9513533E0,2.712603E0,2.8037138E1,1.4849471E0,4.415557E0,4.4114795E0,1.6804877E2,1.241009E0,5.548005E1,1.4853452E0,6.8597727E0,2.9671173E0,1.8910063E1,1.7268218E0,2.4664593E0,3.7311625E0,4.9518957E0,4.714846E0,1.7460163E0,1.7450924E0,1.14642746E2,2.983601E0,2.9945602E1,3.0125446E1,6.1915674E0,1.4985137E0,2.7375815E0,2.2335656E0,1.7420896E0,1.975282E0,1.0701063E2,2.7393258E0,1.7318644E1,1.7463057E0,7.876493E0,1.721202E0,1.7403086E0,1.2299455E0,4.9554768E0,1.2392927E0,1.2450771E0,1.4839609E0,7.1280446E0,1.2341166E0,5.5164658E1,9.173844E0,2.7369504E0,2.4848235E0,1.9289942E1,2.7121763E0,1.7421128E3,2.7200518E0,1.4684572E0,1.4583704E0,4.899354E0,1.97258E0,1.4770919E0,1.478343E0,1.6870796E1,1.4800578E0,1.2278136E0,1.4702113E0,3.483329E0,1.7329307E0,1.7822954E2,1.2151432E0,2.2352302E0,1.7161229E0,2.6573698E1,1.4634408E0,2.6972413E0,1.7183154E0,2.935959E0,1.4755206E0,1.6584581E2,2.2029588E0,5.277406E1,2.7059877E0,5.3843827E0,1.4753897E0,1.4819192E0,1.485198E0,1.7664448E1,1.2456154E0,1.2330208E0,1.2334384E0,2.4890244E0,1.2421381E0,2.7207706E0,2.2311254E0,1.1018517E2,4.4575734E0,1.7436249E0,1.2399762E0,1.953538E1,1.0410223E1,2.591354E1,4.211907E0,4.4483457E0,1.7432215E0,1.0302744E2,3.9831874E0,1.2450122E0,1.4943135E0,1.5322893E1,1.9957514E0,6.642307E0,1.2341863E0,4.1276985E1,1.388767E1,1.4899141E0,7.68393E0,1.2424873E0,1.2423363E0,1.804842E1,1.2415212E0,1.4802341E0,1.2319422E0,1.7322079E3,9.904862E0,1.4765625E0,1.2434893E0,2.241901E0,1.2414283E0,1.7505576E2,3.1737869E0,2.5099287E1,1.4744105E0,1.2199559E0,1.7160031E0,1.6239618E2,3.4496372E0,5.0801373E1,1.9726899E0,1.4744778E0,1.2315099E0,4.1576896E0,1.226693E0,1.6426779E1,1.2376692E0,1.0870143E2,1.4837385E0,1.9718587E0,2.4857144E0,1.829017E1,1.2452096E0,7.6740813E0,2.7361417E0,2.218843E1,3.7251081E0,2.2380915E0,1.9738156E0,3.2106977E0,1.2376482E0,1.0129473E2,1.7327124E0,1.7375587E0,2.2456288E0,1.3836608E1,1.4862846E0,3.3074844E1,8.202144E0,1.2399533E1,1.4881358E0,6.4496064E0,1.2343234E0,1.6552402E1,1.4960188E0,1.7290212E3,3.1867008E0,7.168947E0,2.735915E0,1.728439E2,2.211852E0,1.9520799E0,1.2217069E0,2.3141615E1,1.9576719E0,1.4769437E2,1.4701803E1,1.9726729E0,1.4769644E0,4.931671E1,1.4846582E0,1.4708302E1,1.7184763E0,1.0672419E2,1.9772416E0,1.2483097E0,1.2374048E0,1.3816876E1,4.473294E0,4.2109747E0,3.4631064E0,2.0208496E1,1.9799354E0,2.4866626E0,1.2384455E0,9.981684E1,1.4778903E0,1.2594874E1,1.2417336E0,2.785537E1,5.2194743E0,5.9596877E0,2.2424562E0,9.426542E0,2.972991E0,1.5318238E1,1.234164E0,1.7277893E3,1.231875E0,1.4752264E0,1.7114744E0,5.9313936E0,1.2375537E0,1.7136646E2,1.4774499E0,2.1912281E1,1.229335E0,1.4547636E2,2.218015E0,9.056126E0,5.645677E0,4.8092113E1,1.224599E0,1.0399471E2,2.729478E0,1.1105935E1,2.710941E0,1.7426386E0,2.730655E0,2.984778E0,1.2261969E0,1.9772109E0,1.4858954E0,1.89678E1,1.2406964E0,1.240731E0,1.2459316E0,9.6372246E1,3.444599E0,9.61914E0,2.9757352E0,2.1648958E1,6.2064104E0,3.7278042E0,1.49167E0,7.9379625E0,1.4885801E0,1.738509E0,1.2344818E0,1.725562E3,2.227348E0,1.6987608E2,1.4903709E0,1.420493E2,3.427061E0,7.3334985E0,1.7226275E0,4.411741E0,1.2339362E0,4.5378468E1,2.7136471E0,1.01270546E2,2.7241645E0,9.8689375E0,1.2369981E0,1.481993E0,1.2289481E0,1.4885676E0,1.2420874E0,1.7730247E1,1.237551E0,9.487921E1,1.4930323E0,2.2098742E0,1.2347248E0,1.4934479E0,1.4822873E0,1.7164557E1,4.484402E0,3.7281997E0,2.478211E0,6.700765E0,1.2371973E0,1.7240758E3,1.4862055E0,1.6817017E2,1.7059191E0,1.4081006E2,1.2392348E0,2.2061331E0,1.2209278E0,1.225971E0,3.1857696E0,4.414842E1,1.230047E0,1.2422705E0,1.4713767E0,9.97931E1,1.4774503E0,1.4866868E0,1.2374775E0,1.59879675E1,1.7422805E0,9.315244E1,1.726768E0,6.974789E0,1.0189767E1,3.2379196E0,1.2464827E0,1.2404844E0,1.2377266E0],"tree_param":{"num_deleted":"0","num_feature":"357","num_nodes":"539","size_leaf_vector":"0"}},{"base_weights":[-1.1055895E0,-1.2002659E0,-3.767364E-1,-1.2649969E0,-5.416848E-1,-6.811606E-1,-0E0,-1.2811074E0,-0E0,-6.115143E-1,4.209276E-1,-7.607293E-1,1.3601209E-1,-1.0722725E-1,9.751437E-1,-1.3299302E0,-9.378647E-1,-2.5108954E-1,7.3089826E-1,-7.0650274E-1,-1.6693497E-2,8.192569E-1,-0E0,-8.072841E-1,2.3798876E-2,5.6145513E-1,-4.539149E-1,-2.4576543E-3,-8.327762E-1,1.1676648E0,-0E0,-1.3645828E0,-1.09875E0,-1.0522382E0,-3.1020474E-1,3.961934E-2,-7.711847E-1,1.2132113E0,-1.5265627E-1,-8.969944E-1,-3.2798904E-1,-8.2837325E-1,4.012418E-1,1.1181735E0,-0E0,-2.7066943E-1,6.763341E-1,-8.8762194E-1,-1.5188447E-1,7.380193E-1,-8.422529E-1,-0E0,1.0402111E0,-7.361927E-1,-0E0,-9.76975E-2,8.4051514E-1,-9.9569744E-1,3.7570283E-2,1.2778343E0,-0E0,-1.4270201E0,-1.2596288E0,-1.1215333E0,1.2703297E-1,-1.1751626E0,-7.23503E-1,-6.8891025E-1,7.38746E-2,-1.2727854E-1,7.3656046E-1,-1.0632607E0,-0E0,-9.9872696E-1,-6.637838E-2,-2.3456484E-2,-6.797641E-1,-1.0386227E0,-0E0,5.877082E-1,-4.323755E-1,-6.566864E-1,2.502071E-1,-9.401505E-1,-0E0,1.3460313E-1,-6.192364E-1,1.0231142E0,-0E0,2.9578933E-1,-3.5295847E-1,-9.2821324E-1,-0E0,-8.581531E-1,-0E0,1.0954235E0,-0E0,-1.1823004E0,-0E0,-1.4302464E0,-0E0,-1.2846397E0,-5.059949E-1,-1.1425499E0,7.280264E-2,6.974957E-1,-0E0,-1.204163E0,-0E0,-7.8285724E-1,1.0372318E-1,-8.378665E-1,3.5484365E-1,-3.6613506E-1,5.619975E-1,9.691764E-2,-5.0969553E-1,8.8367265E-1,-0E0,-1.2210554E0,-0E0,-1.0354142E0,1.4641575E-2,-3.0597103E-1,6.827548E-1,1.4050733E-1,-8.447509E-1,-7.9314524E-1,4.151529E-1,-1.3472952E0,-1.6877165E-2,8.632752E-1,-9.76823E-3,-0E0,-1.0918891E0,-9.6478206E-1,3.2919195E-1,-5.549372E-1,9.561925E-1,4.7638384E-1,-6.219804E-1,-7.972213E-1,-0E0,7.854558E-1,-1.9935584E-1,-0E0,-1.0463111E0,-6.6485874E-2,8.697421E-1,1.2197146E0,-0E0,-1.3443922E0,-0E0,-1.4334813E0,-0E0,-1.2929447E0,-0E0,-8.547898E-1,4.5182046E-2,-1.1572725E0,3.0123484E-1,5.8030885E-1,-2.1274793E-1,-5.2258694E-1,9.11041E-2,-1.2174402E0,-0E0,-3.0132475E-1,4.989158E-1,-8.4162295E-1,-0E0,8.0429894E-1,-1.8252091E-1,-9.6801287E-1,1.1669626E-1,6.25261E-2,-1.054748E0,7.7764726E-1,-1.1220468E-1,4.9738806E-1,-4.7986987E-1,-8.445341E-1,-0E0,-1.0881258E0,-0E0,7.588888E-1,-2.6037067E-1,2.4781582E-1,-5.6808066E-1,3.1758747E-1,-8.3205223E-1,-1.143288E0,-0E0,-1.1363134E0,-1.0693642E-1,3.0083776E-2,-4.2136326E-1,1.0501179E0,-0E0,2.2029446E-1,-4.1837507E-1,-9.997846E-1,-0E0,-0E0,-8.745814E-1,-1.0303769E-1,8.272954E-1,-9.997558E-1,-0E0,-0E0,-5.6821935E-2,-1.1742663E0,-0E0,1.2890569E-2,-5.569503E-1,-0E0,1.1777809E0,-1.4358264E0,-0E0,4.847639E-2,-5.4868855E-2,-1.3091844E0,-4.51266E-1,-3.484668E-1,4.7057074E-1,-1.0905809E0,2.0492761E-1,-4.327476E-1,5.8451635E-1,-1.1703115E0,2.7779952E-1,-1.2313309E0,-0E0,-8.845913E-1,2.632536E-1,7.493587E-1,-5.7141113E-1,-1.0857844E0,-0E0,-1.9805083E-1,4.5208728E-1,8.577937E-3,1.2716901E0,7.305849E-1,-0E0,-1.018795E0,-0E0,-1.1304121E0,-0E0,2.530309E-1,-3.9940262E-1,8.6116207E-1,-9.622414E-2,-8.8270617E-1,2.8264362E-1,4.4199878E-1,-5.303642E-1,-0E0,-1.2514144E0,-5.364997E-1,6.183087E-1,1.1329595E0,-0E0,-0E0,-6.8828225E-1,-1.0218451E0,2.3752911E-1,5.644852E-1,-4.6525395E-1,-4.628276E-1,-0E0,1.1403033E0,-0E0,-1.3268688E0,-0E0,-1.24131225E-1,6.0616714E-1,-9.456029E-1,4.9098524E-1,-1.439267E0,-1.4372927E-1,-1.3237439E0,-5.244576E-1,-6.718969E-1,6.0555327E-1,-1.1867803E0,-0E0,-0E0,-8.21136E-1,1.0103897E0,-8.574127E-2,-1.1848402E0,3.8531303E-2,-1.2445215E0,-0E0,-9.4690335E-1,-0E0,-0E0,-1.1879272E0,-5.240265E-1,-0E0,7.5183094E-1,-0E0,5.9272045E-1,-3.5670286E-1,-1.157761E0,-0E0,2.5682044E-1,-4.7867465E-1,-0E0,5.310225E-1,-1.1369411E0,-0E0,1.1910485E-1,1.0537504E0,-1.3321035E0,-0E0,-7.9357207E-1,-0E0,1.232666E0,-0E0,-1.0440573E0,2.1688153E-1,1.3439851E0,-0E0,-2.231698E-1,7.23128E-1,9.1629785E-1,-1.160022E-2,-1.1104101E0,-0E0,-0E0,7.4176794E-1,-1.4408678E0,-0E0,-8.659908E-1,4.356713E-1,-1.3288865E0,-0E0,-7.764772E-1,2.5767192E-1,-8.5994047E-1,-0E0,-1.3094692E0,-0E0,1.1931171E0,-0E0,-1.205339E0,-0E0,-1.2570974E0,-0E0,-9.9014586E-1,-0E0,3.3076453E-1,-4.886496E-1,-1.3017489E0,-0E0,-1.186475E0,-0E0,2.4534106E-1,-4.9228585E-1,-7.354851E-2,1.0467864E0,1.2762965E0,-0E0,-1.4301325E0,-3.0735675E-2,-1.0285943E0,-0E0,1.366427E0,-0E0,-1.0695584E0,-0E0,-3.476865E-1,4.1171914E-1,-0E0,9.7792226E-1,1.134835E0,-0E0,-5.974828E-1,4.2598474E-1,-1.2078092E0,-0E0,-1.442494E0,-0E0,-1.3328874E0,-0E0,-4.457678E-2,-0E0,-1.0095754E0,1.0444215E-2,-1.0912696E0,-0E0,-1.2220194E0,-0E0,-5.0270915E-1,4.3483284E-1,-1.2764044E0,-6.0603686E-2,-1.0275906E0,-0E0,-0E0,7.9329E-1,-1.3991812E0,-0E0,-1.2158521E0,-0E0,1.6208789E-1,-8.316797E-1,1.5375291E0,-0E0,-1.0918192E0,3.7649713E-2,3.3604166E-1,-9.574265E-2,-4.718995E-1,4.827122E-1,-0E0,8.7624174E-1,1.3205581E0,-0E0,-0E0,-7.3215264E-1,-1.3470477E0,-0E0,-1.4456885E0,-2.3758388E-1,-1.3369952E0,-0E0,-1.140207E0,-0E0,-1.2331119E0,-0E0,3.0529556E-1,-4.5259643E-1,-0E0,-7.064748E-1,-1.3307195E0,-6.150938E-1,1.0983467E-1,-6.473385E-1,-1.0599347E0,-0E0,-1.5051298E0,-0E0,-1.2412876E0,-0E0,-2.1821243E-1,5.5161357E-1,-1.0141876E0,-0E0,-1.1119145E0,-0E0,-5.5911845E-1,2.986719E-1,1.0296235E0,-3.45584E-1,-3.3269376E-1,3.1734934E-1,1.0378957E0,-0E0,-1.4473319E0,-0E0,-6.132103E-1,3.1872705E-2,-1.3397689E0,-0E0,-1.2427766E0,-0E0,-1.3465954E0,-0E0,-9.845426E-1,-0E0,-1.092823E0,-0E0,-1.3068141E0,-3.2314172E-1,-5.888133E-1,5.354634E-2,1.1092718E0,-0E0,-1.129081E0,-0E0,-6.3788223E-1,4.7505993E-1,8.886325E-1,-1.7416638E-1,-6.826857E-1,-0E0,-1.4489537E0,-0E0,-1.3425939E0,-0E0,-1.2525458E0,-0E0,-1.3662585E0,-1.9774023E-1,-1.268052E0,-0E0,-2.911192E-1,7.4463487E-1,-1.1261744E0,-0E0,-1.3260419E0,-0E0,6.0901757E-2,-8.8516676E-1,-0E0,-7.4146533E-1,-5.6610173E-1,1.530028E-1,-1.1455046E0,-0E0,-7.534939E-1,-0E0],"categories":[],"categories_nodes":[],"categories_segments":[],"categories_sizes":[],"default_left":[1,1,1,1,1,1,1,1,1,1,1,1,1,1,1,1,1,1,1,1,1,1,1,1,1,1,1,1,1,1,0,1,1,1,1,1,1,0,0,1,1,1,1,0,0,1,0,1,1,1,0,1,0,1,0,1,1,1,0,0,0,1,1,1,1,1,1,1,1,1,1,1,0,1,1,1,1,1,0,1,0,1,0,1,1,1,1,0,0,1,0,0,0,1,1,1,0,1,0,1,0,1,1,1,1,0,1,1,1,1,1,1,0,1,1,1,1,0,0,0,0,1,1,1,0,1,1,1,0,0,1,1,1,0,0,1,0,1,0,1,0,1,0,0,0,1,1,1,1,0,0,0,0,1,1,1,1,1,1,1,0,0,0,0,0,1,0,0,0,1,1,0,0,1,0,1,0,1,0,1,0,1,0,1,1,0,0,1,1,1,0,0,0,1,1,0,0,1,0,0,1,1,1,0,0,1,1,0,0,0,0,1,0,1,1,0,0,1,0,0,0,1,1,0,0,1,0,1,1,1,0,1,0,1,0,0,0,1,0,1,1,1,0,0,0,0,0,1,1,1,0,0,0,1,0,1,0,0,1,1,0,1,0,0,0,1,0,0,0,0,0,1,0,0,0,1,1,1,1,1,1,1,1,1,0,1,0,0,0,1,0,1,0,1,0,1,1,0,1,0,0,0,0,0,0,1,0,0,0,0,0,0,1,1,1,1,0,1,0,1,0,1,0,0,0,1,1,1,1,1,0,0,0,1,0,0,0,1,1,1,0,1,0,0,0,0,0,1,1,1,0,1,0,1,0,1,0,1,0,0,0,1,0,0,0,0,0,0,0,1,0,1,1,1,1,0,0,1,0,1,0,1,0,1,0,1,0,0,0,1,0,0,0,1,1,1,0,1,1,1,0,0,0,1,0,1,0,1,1,0,0,1,0,0,0,1,1,1,1,0,0,0,0,0,0,1,1,1,0,0,0,1,0,0,0,0,0,1,1,0,0,1,0,0,0,1,0,1,1,0,0,1,0,1,1,0,0,1,0,0,0,1,0,0,0,1,0,1,0,1,0,1,1,1,0,1,1,1,0,0,1,1,0,1,0,0,0,0,0,0,0,0,0,0,0,0,0,0,0,0,0,0,0,0,0,0,0,0,0,0,0,0,0,0,0],"id":3,"left_children":[1,3,5,7,9,11,13,15,17,19,21,23,25,27,29,31,33,35,37,39,41,43,45,47,49,51,53,55,57,59,-1,61,63,65,67,69,71,-1,-1,73,75,77,79,-1,-1,81,-1,83,85,87,-1,89,-1,91,-1,93,95,97,-1,-1,-1,99,101,103,105,107,109,111,113,115,117,119,-1,121,123,125,127,129,-1,131,-1,133,-1,135,137,139,141,-1,-1,143,-1,-1,-1,145,147,149,-1,151,-1,153,-1,155,157,159,161,-1,163,165,167,169,171,173,-1,175,177,179,181,-1,-1,-1,-1,183,185,187,-1,189,191,193,-1,-1,195,197,199,-1,-1,201,-1,203,-1,205,-1,207,-1,-1,-1,209,211,213,215,-1,-1,-1,-1,217,219,221,223,225,227,229,-1,-1,-1,-1,-1,231,-1,-1,-1,233,235,-1,-1,237,-1,239,-1,241,-1,243,-1,245,-1,247,249,-1,-1,251,253,255,-1,-1,-1,257,259,-1,-1,261,-1,-1,263,265,267,-1,-1,269,271,-1,-1,-1,-1,273,-1,275,277,-1,-1,279,-1,-1,-1,281,283,-1,-1,285,-1,287,289,291,-1,293,-1,295,-1,-1,-1,297,-1,299,301,303,-1,-1,-1,-1,-1,305,307,309,-1,-1,-1,311,-1,313,-1,-1,315,317,-1,319,-1,-1,-1,321,-1,-1,-1,-1,-1,323,-1,-1,-1,325,327,329,331,333,335,337,339,341,-1,343,-1,-1,-1,345,-1,347,-1,349,-1,351,353,-1,355,-1,-1,-1,-1,-1,-1,357,-1,-1,-1,-1,-1,-1,359,361,363,365,-1,367,-1,369,-1,371,-1,-1,-1,373,375,377,379,381,-1,-1,-1,383,-1,-1,-1,385,387,389,-1,391,-1,-1,-1,-1,-1,393,395,397,-1,399,-1,401,-1,403,-1,405,-1,-1,-1,407,-1,-1,-1,-1,-1,-1,-1,409,-1,411,413,415,417,-1,-1,419,-1,421,-1,423,-1,425,-1,427,-1,-1,-1,429,-1,-1,-1,431,433,435,-1,437,439,441,-1,-1,-1,443,-1,445,-1,447,449,-1,-1,451,-1,-1,-1,453,455,457,459,-1,-1,-1,-1,-1,-1,461,463,465,-1,-1,-1,467,-1,-1,-1,-1,-1,469,471,-1,-1,473,-1,-1,-1,475,-1,477,479,-1,-1,481,-1,483,485,-1,-1,487,-1,-1,-1,489,-1,-1,-1,491,-1,493,-1,495,-1,497,499,501,-1,503,505,507,-1,-1,509,511,-1,513,-1,-1,-1,-1,-1,-1,-1,-1,-1,-1,-1,-1,-1,-1,-1,-1,-1,-1,-1,-1,-1,-1,-1,-1,-1,-1,-1,-1,-1,-1,-1],"loss_changes":[1.937268E2,1.0446948E2,3.7467678E1,4.568042E1,1.5751709E1,1.2518753E1,1.5320354E1,3.4243164E1,5.4154515E0,1.133638E1,2.6242843E0,6.884262E0,4.3336763E0,9.424279E0,3.3199654E0,1.1800049E1,1.8879791E1,4.3744817E0,4.3641653E0,1.1658081E1,1.1578823E1,1.7917123E0,1.6221699E0,7.166771E0,6.143434E0,2.2456641E0,1.1359874E0,8.986852E0,3.239645E0,1.3948059E0,0E0,6.6777344E0,8.548523E0,6.9733276E0,7.49183E0,2.4528463E0,3.0386128E0,0E0,0E0,8.944298E0,6.192284E0,3.1222286E0,3.6603148E0,0E0,0E0,1.9115947E0,0E0,6.926056E0,3.2275248E0,1.7888288E0,0E0,7.4468994E-1,0E0,3.610742E-1,0E0,7.564018E0,2.8632698E0,3.3905916E0,0E0,0E0,0E0,5.2854004E0,9.807739E0,7.715393E0,1.0095665E0,6.3984528E0,4.211815E0,4.6729956E0,5.318163E0,1.4766066E0,3.592038E-2,9.9437714E-1,0E0,4.942711E0,2.5521216E0,5.8242574E0,4.230047E0,1.9293604E0,0E0,3.9070477E0,0E0,1.9104543E0,0E0,5.0874634E0,5.1258183E0,3.2044835E0,1.4992001E0,0E0,0E0,1.945273E0,0E0,0E0,0E0,1.5307798E0,5.23148E0,7.43639E-1,0E0,2.0222626E0,0E0,4.8461914E0,0E0,7.2781982E0,5.425036E0,6.6846924E0,1.1632037E0,0E0,6.2688917E-1,3.5546417E0,9.5473444E-1,3.4215317E0,1.6632086E0,3.8274117E0,0E0,4.4725323E0,2.544528E0,1.7924349E0,1.7413323E0,0E0,0E0,0E0,0E0,5.2783585E0,1.454476E0,2.3747401E0,0E0,5.0544333E0,2.7609682E0,4.966305E0,0E0,0E0,4.838096E-1,2.5029593E0,8.243042E-1,0E0,0E0,4.848007E0,0E0,1.6322794E0,0E0,2.7637584E0,0E0,1.135685E0,0E0,0E0,0E0,7.1277306E-3,9.5734596E-1,4.205602E0,2.28447E0,0E0,0E0,0E0,0E0,4.506592E0,1.176532E-2,6.1689453E0,9.8621917E-1,5.042515E0,2.7414157E0,6.009674E0,0E0,0E0,0E0,0E0,0E0,3.458908E0,0E0,0E0,0E0,3.8288574E0,2.7182999E0,0E0,0E0,2.8659744E0,0E0,1.0722278E0,0E0,2.7315264E0,0E0,9.006357E-1,0E0,2.5136733E-1,0E0,3.8096619E0,7.7134E-1,0E0,0E0,1.6298324E0,3.6540842E0,3.0630515E0,0E0,0E0,0E0,1.9430695E0,3.6887395E0,0E0,0E0,5.29768E-1,0E0,0E0,4.824766E-1,4.4825287E0,1.6565735E0,0E0,0E0,4.3539536E-1,2.516325E0,0E0,0E0,0E0,0E0,8.9749336E-1,0E0,7.0617766E0,6.968172E0,0E0,0E0,2.8720703E0,0E0,0E0,0E0,4.425049E0,3.851992E0,0E0,0E0,1.3478355E0,0E0,1.1658823E0,2.6290293E0,5.6647644E0,0E0,3.4622498E0,0E0,3.5161514E0,0E0,0E0,0E0,2.1084023E0,0E0,4.7531733E-1,1.00109E0,1.7147975E0,0E0,0E0,0E0,0E0,0E0,3.832924E0,8.859346E-1,5.186324E-1,0E0,0E0,0E0,1.3427348E0,0E0,3.775546E0,0E0,0E0,9.786129E-1,1.9169483E0,0E0,5.8329964E-1,0E0,0E0,0E0,4.502899E0,0E0,0E0,0E0,0E0,0E0,6.5807104E-1,0E0,0E0,0E0,5.0705385E0,4.086481E0,2.489049E0,4.122498E-1,2.3273926E0,2.7609403E0,3.9082031E0,3.4815629E0,1.9792342E0,0E0,1.4271507E0,0E0,0E0,0E0,3.0572414E-2,0E0,5.3308716E0,0E0,2.0583954E0,0E0,2.901329E0,9.3097436E-1,0E0,2.4938793E0,0E0,0E0,0E0,0E0,0E0,0E0,3.7569962E0,0E0,0E0,0E0,0E0,0E0,0E0,6.7071956E-1,4.447712E0,1.5962801E0,2.6908112E-1,0E0,1.1405063E0,0E0,8.695221E-1,0E0,3.8793793E0,0E0,0E0,0E0,4.785742E0,1.1551774E0,3.5248013E0,1.8211801E0,5.9111404E-1,0E0,0E0,0E0,1.9179688E0,0E0,0E0,0E0,3.340088E0,4.378092E-3,3.1771412E0,0E0,2.5144987E0,0E0,0E0,0E0,0E0,0E0,4.9580994E0,1.5416297E0,2.320465E0,0E0,2.9047813E0,0E0,1.0008812E0,0E0,1.8958969E0,0E0,3.0681229E0,0E0,0E0,0E0,3.623886E0,0E0,0E0,0E0,0E0,0E0,0E0,0E0,